svm_type c_svc
kernel_type rbf
gamma 0.03125
nr_class 3
total_sv 100
rho 0.0808535 -0.165312 -0.274625
label 0 1 2
probA -4.61544 -6.18634 -4.00298
probB -0.197952 -0.115693 0.148311
nr_sv 31 38 31
SV
0.6773890228441198 0.7805856480938526 1:0.85072 2:0.0498993 3:0.142875 4:0.0900986 5:-0.322937 6:-0.135322 7:-0.214463 8:0.121455 9:-0.124334 10:-0.169727 11:-0.233287 12:-0.349057 13:-0.0383253 14:0.54835 15:0.0494867 16:0.229428 17:-0.0373242 18:-0.245114 19:-0.680406 20:-0.416232 21:-0.325484 22:-0.0147869 23:-0.293602 24:0.0912508 25:0.42512 26:0.256795 27:0.499918 28:0.202053 29:0.128214 30:-0.131468 31:-0.0566282 32:-0.384708 33:-0.241969 34:-0.117738 35:0.263812 36:-0.250072 37:0.179141 38:0.491181 39:-0.0193425 40:0.622422 41:0.114697 42:0.00113286 43:-0.116566 44:-0.180412 45:-0.403021 46:-0.51666 47:0.151513 48:0.488139 49:0.0601169 50:0.1491 51:0.190688 52:-0.332853 53:0.649674 54:0.306126 55:-0.128068 56:-0.118344 57:-0.0486024 58:-0.596942 59:-0.218397 60:0.277405 61:0.254807 62:-0.135472 63:0.28927 64:0.646283 65:-0.770312 66:0.445432 67:0.35678 68:-0.236715 69:0.33309 70:0.306053 71:-0.28763 72:-0.298918 73:-0.199288 74:0.120177 75:-0.454249 76:-0.0256889 77:-0.361855 78:-0.344641 79:0.381695 80:0.268851 81:-0.0448983 82:0.452957 83:-0.0206009 84:-0.658711 85:-0.732648 86:-0.16653 87:0.0483732 88:0.0509837 89:0.146125 90:-0.203771 91:0.629 92:0.191131 93:0.289729 94:0.166766 95:0.772256 96:-0.371378 97:-0.299961 98:-0.659974 99:-0.184166 100:0.550558 101:-0.344572 102:-0.203224 103:0.0356409 104:0.66271 105:0.0438108 106:0.363345 107:0.263285 108:0.678896 109:-0.394207 110:-0.309123 111:-0.335204 112:0.0437847 113:0.323235 114:0.211221 115:0.739638 116:-0.414134 117:-0.331214 118:-0.025131 119:0.227179 120:0.117427 121:0.51888 122:-0.513823 123:0.406034 124:-0.16745 125:0.0327823 126:0.739601 127:-0.0159373 128:0.101175 129:-0.327921 130:0.652452 131:-0.0292322 132:0.0596807 133:0.44874 134:0.857871 135:-0.019784 136:0.623057 137:-0.659398 138:0.284751 139:0.152128 140:-0.154735 141:0.187643 142:-0.589457 143:0.0280579 144:0.0500012 145:-0.450225 146:0.145878 147:0.405277 148:-0.471532 149:0.732944 150:0.0181338 151:0.367508 152:0.76967 153:0.437709 154:1 155:-0.178472 156:0.0965342 157:0.0438174 158:-0.597872 159:0.390383 160:0.456092 161:-0.783368 162:0.575084 163:-0.357952 164:-0.762813 165:0.31215 166:0.355675 167:0.159091 168:0.0404325 169:0.406027 170:0.0733499 171:-0.608222 172:0.374432 173:0.292209 174:-0.82094 175:0.629492 176:-0.214546 177:-0.251785 178:-0.22215 179:-0.164405 180:0.621447 181:0.304056 182:0.429464 183:0.0939723 184:-0.597997 185:0.247882 186:0.437388 187:-0.659704 188:0.481444 189:-0.171334 190:-0.31832 191:0.0328501 192:0.369172 193:-0.310341 194:0.258584 195:0.411082 196:-0.0934995 197:-0.816039 198:0.0141574 199:0.723979 200:-0.536759 201:0.41082 202:-0.598994 203:0.0544498 204:0.338155 205:0.2193 206:0.160746 207:-0.439167 208:-0.190336 209:-0.0393026 210:-0.711651 211:0.314801 212:0.603707 213:-1 214:0.405743 215:-0.664023 216:-0.0437349 217:-0.509044 218:-0.193105 219:0.150062 220:-0.548324 221:0.369045 222:0.0526355 223:-0.722295 224:-0.0975628 225:0.487724 226:-0.820385 227:0.388725 228:-0.259557 229:-0.523579 230:0.374641 231:-0.185889 232:0.012312 233:0.1847 234:0.0455228 235:0.0116233 236:-0.497482 237:-0.232197 238:0.537692 239:-0.647515 240:0.387926 241:-0.0365334 242:-0.464978 243:0.1081 244:0.288907 245:0.366231 246:0.180326 247:0.644425 248:0.098958 249:0.240238 250:-0.0580165 251:0.687418 252:-0.247733 253:0.46506 254:-0.343436 255:0.342703 256:0.753701 257:-0.410056 258:0.229673 259:-0.458072 260:0.14874 261:0.399936 262:0.532988 263:-0.620078 264:0.155339 265:-0.242681 266:0.162821 267:-0.114599 268:0.699301 269:0.544083 270:-0.667062 271:-0.108299 272:0.0453266 273:0.541767 274:0.193937 275:0.567617 276:-0.235489 277:-0.14674 278:-0.368903 279:0.367221 280:0.304164 281:0.600175 282:0.0859138 283:-0.20945 284:0.0988101 285:0.0867599 286:-0.140663 287:0.277637 288:0.566618 289:-0.161135 290:-0.00920849 291:-0.481254 292:0.209714 293:-0.0489743 294:-0.0117299 295:-0.259819 296:-0.0367096 297:0.353238 298:0.247432 299:0.087467 300:0.205089 301:0.538247 302:-0.0863378 303:0.207043 304:-0.669004 305:0.447363 306:0.473056 307:0.0806761 308:-0.157169 309:-0.0626485 310:0.43847 311:0.357511 312:-0.013661 
0.8414347831077979 0.6317171591091029 1:1 2:-0.340914 3:-0.01265 4:0.0878996 5:0.35076 6:-0.254736 7:-0.247722 8:-0.169183 9:-0.0925723 10:-0.0484451 11:0.141625 12:-0.29679 13:0.51763 14:0.809262 15:-0.200874 16:0.108805 17:0.470265 18:0.125276 19:-0.440138 20:-0.41208 21:-0.536958 22:-0.265037 23:-0.294245 24:0.19547 25:-0.0647417 26:0.443671 27:0.782548 28:-0.100628 29:-0.00619156 30:0.0947511 31:0.106735 32:-0.348946 33:-0.333588 34:-0.536774 35:-0.292141 36:-0.120584 37:0.0806272 38:0.183824 39:0.370692 40:0.892618 41:-0.123843 42:-0.0503818 43:0.0687252 44:0.224506 45:-0.36935 46:-0.750691 47:-0.548131 48:-0.36842 49:-0.0536021 50:0.244115 51:-0.207064 52:-0.383813 53:0.779084 54:-0.0985558 55:-0.183207 56:-0.029241 57:0.244122 58:-0.204957 59:-0.149595 60:-0.0673821 61:-0.287313 62:-0.0211209 63:0.403426 64:-0.346067 65:-0.179802 66:0.673019 67:-0.0264973 68:-0.0360493 69:0.0276441 70:0.0782862 71:-0.0278495 72:-0.412247 73:-0.326234 74:-0.934021 75:-0.116155 76:0.803819 77:-0.340235 78:-0.268235 79:0.622176 80:-0.142947 81:0.0414265 82:0.084079 83:-0.112615 84:-0.531556 85:-0.349807 86:-0.162109 87:-0.0750222 88:0.189852 89:0.616221 90:0.30529 91:-0.273294 92:0.528216 93:0.0603451 94:0.10556 95:-0.107944 96:0.0242159 97:0.0522066 98:0.0126662 99:0.276908 100:-0.234947 101:-0.699801 102:0.0568436 103:-0.0815408 104:0.114057 105:0.22891 106:0.219019 107:0.174965 108:-0.026403 109:-0.195235 110:0.381635 111:0.441329 112:0.0922611 113:-0.1578 114:-0.193278 115:0.509987 116:0.162246 117:-0.377369 118:0.150602 119:0.266656 120:0.348968 121:0.116156 122:0.256403 123:0.285573 124:-0.112884 125:-0.0816232 126:-0.431963 127:-0.0331751 128:0.218658 129:0.244697 130:-0.378794 131:0.249033 132:0.0990839 133:0.453416 134:0.308145 135:-0.0459061 136:0.586939 137:-0.148923 138:0.260293 139:-0.466321 140:0.0611721 141:0.033238 142:0.0419982 143:-0.00251888 144:0.323271 145:-0.675579 146:0.82887 147:0.117221 148:0.193703 149:0.541731 150:-0.187921 151:0.361383 152:-0.255572 153:0.0670784 154:-0.343526 155:-0.144574 156:-0.837675 157:0.179604 158:-0.848445 159:0.604028 160:-0.41933 161:0.0265735 162:0.382983 163:-0.358 164:0.255088 165:-0.145777 166:0.246373 167:-0.1969 168:-0.207719 169:-0.0933149 170:0.00148106 171:-0.746042 172:0.515021 173:-0.516497 174:0.13685 175:0.300014 176:-0.430855 177:0.323478 178:-0.208249 179:0.848233 180:0.296159 181:0.168564 182:-0.476964 183:0.0337125 184:-1 185:0.375896 186:-0.275335 187:0.275547 188:0.497908 189:-0.143701 190:0.263032 191:-0.0733577 192:0.46069 193:-0.3572 194:0.106214 195:0.0372874 196:0.0935465 197:-0.849103 198:0.4853 199:-0.197402 200:0.0558754 201:-0.00251166 202:-0.547639 203:0.156982 204:-0.141979 205:0.29756 206:-0.316027 207:-0.0693129 208:0.0583278 209:0.0537301 210:-0.802789 211:0.742576 212:-0.452288 213:0.0703879 214:0.392015 215:-0.511025 216:0.368182 217:-0.529133 218:0.261814 219:-0.608647 220:-0.109148 221:-0.37322 222:0.139372 223:-0.861642 224:0.444626 225:-0.0147476 226:-0.0868491 227:0.298942 228:-0.592101 229:0.102782 230:-0.398939 231:-0.00857851 232:-0.000940649 233:0.496587 234:0.256553 235:0.13711 236:-0.575325 237:0.159482 238:-0.0873596 239:-0.150622 240:0.449525 241:-0.224982 242:0.0901652 243:0.0808841 244:0.390062 245:0.00726674 246:0.490099 247:0.0420831 248:0.520548 249:0.210437 250:0.0517516 251:0.0122887 252:-0.180251 253:0.414358 254:-0.133086 255:0.365012 256:-0.693015 257:0.451471 258:-0.208199 259:0.137832 260:-0.238654 261:0.44165 262:0.217654 263:-0.243488 264:-0.293407 265:-0.091975 266:0.463162 267:-0.199729 268:0.176445 269:-0.129328 270:0.75306 271:0.0533002 272:0.381043 273:-0.0155659 274:0.367679 275:0.400973 276:-0.195713 277:-0.266192 278:-0.13937 279:0.334059 280:-0.365851 281:0.128893 282:-0.381166 283:0.520141 284:-0.183245 285:-0.0157564 286:-0.0759205 287:0.149427 288:0.185855 289:0.0088735 290:-0.0356247 291:0.127783 292:0.772567 293:-0.16761 294:-0.624535 295:0.0416077 296:0.484909 297:-0.383552 298:-0.573841 299:-0.279691 300:0.332931 301:0.279408 302:-0.0842718 303:-0.168268 304:-0.241356 305:0.744503 306:-0.292208 307:-0.160711 308:-0.172388 309:0.643329 310:-0.710996 311:-0.436736 312:-0.00595973 
0.7553342767826616 0.561691711866973 1:-0.0350248 2:-0.137249 3:-0.00264609 4:-0.95511 5:0.388734 6:-0.279105 7:-0.0982041 8:-0.0588369 9:-0.00951318 10:-0.0886405 11:-0.100868 12:0.505481 13:0.317927 14:0.768154 15:-0.315984 16:0.0125312 17:-0.962648 18:0.863728 19:-0.208886 20:-0.439022 21:-0.222538 22:-0.191353 23:-0.12687 24:-0.27045 25:0.138539 26:0.45769 27:0.732519 28:-0.176562 29:-0.102296 30:-0.862745 31:0.918403 32:-0.0180917 33:-0.228828 34:-0.316019 35:-0.620287 36:-0.471043 37:-0.101786 38:2.15974e-005 39:0.36861 40:0.595245 41:-0.0684011 42:-0.165431 43:-0.776985 44:0.599522 45:0.00184647 46:-0.297877 47:-0.561309 48:-0.36409 49:-0.212903 50:-0.24857 51:-0.0733161 52:0.364157 53:0.591876 54:0.00795836 55:-0.187985 56:-0.945949 57:0.918146 58:-0.139621 59:-0.177158 60:-0.499195 61:-0.20598 62:-0.462226 63:0.167907 64:0.575489 65:0.374319 66:0.852123 67:-0.331594 68:-0.212714 69:-0.736228 70:0.60824 71:0.282563 72:-0.561405 73:-0.551894 74:-0.230715 75:-0.44482 76:-0.359604 77:0.46191 78:0.441155 79:0.666072 80:-0.0966445 81:-0.0703508 82:-0.814495 83:0.646565 84:-0.0745665 85:-0.194261 86:-0.600251 87:0.0604633 88:-0.17403 89:-0.377682 90:0.322313 91:0.577726 92:0.426558 93:0.174416 94:0.310713 95:-0.743645 96:0.290661 97:-0.501165 98:-0.0605543 99:-0.615617 100:0.0821747 101:-0.633514 102:0.0372478 103:0.469991 104:-0.336683 105:0.381597 106:0.376625 107:0.507957 108:-0.834598 109:0.280407 110:-0.545533 111:-0.0584127 112:-0.6086 113:-0.279044 114:-0.433639 115:0.213761 116:0.655275 117:-0.314435 118:0.339944 119:0.336186 120:0.642965 121:-0.741099 122:0.096876 123:-0.320112 124:-0.133513 125:-0.474716 126:-0.304139 127:-0.175403 128:0.505009 129:0.226138 130:-0.953556 131:0.271665 132:0.292014 133:0.907401 134:-0.509828 135:-0.10439 136:-0.403612 137:-0.113221 138:-0.264528 139:-0.242916 140:0.0326395 141:0.574649 142:-0.00515405 143:-0.494294 144:0.123437 145:0.124663 146:0.972801 147:-0.357951 148:0.0567314 149:-0.677831 150:-0.343817 151:-0.398562 152:0.0070593 153:-0.00427442 154:0.311983 155:0.081597 156:0.364674 157:-0.0717355 158:-0.260368 159:0.62892 160:-0.411839 161:-0.134381 162:-0.495725 163:0.10269 164:-0.810317 165:-0.166135 166:-0.176506 167:0.180965 168:-0.141074 169:0.394517 170:-0.286172 171:-0.507953 172:0.567726 173:-0.506122 174:0.390291 175:-0.385159 176:0.0819 177:-0.389762 178:0.755586 179:-0.365169 180:0.450405 181:0.074042 182:0.320375 183:-0.130853 184:-0.556815 185:0.579853 186:-0.261155 187:0.0584942 188:-0.178493 189:0.145085 190:-0.293701 191:0.222941 192:-0.152303 193:0.426344 194:-0.174032 195:0.458986 196:-0.274374 197:-0.612307 198:0.438376 199:-0.139846 200:0.374327 201:-0.211369 202:-0.121911 203:-0.532704 204:0.120787 205:-0.0798106 206:0.143127 207:-0.613214 208:0.340737 209:-0.0402466 210:-0.642023 211:0.538398 212:-0.19845 213:0.260162 214:-0.430801 215:-0.41495 216:-0.809862 217:0.462932 218:-0.275548 219:0.553114 220:-0.440668 221:0.392066 222:0.573313 223:0.0342165 224:0.0675723 225:-0.265497 226:0.26382 227:-0.464171 228:-0.434326 229:-0.290466 230:-0.71501 231:0.177499 232:-0.0952792 233:0.153362 234:0.275097 235:0.497443 236:0.126368 237:-0.173851 238:-0.329117 239:-0.279661 240:-1 241:0.50386 242:-0.169848 243:0.257645 244:0.301272 245:-0.296292 246:0.0826627 247:-0.315683 248:0.459863 249:0.166644 250:-0.278037 251:-0.241353 252:-0.306532 253:-0.628984 254:0.64489 255:-0.223416 256:-0.0339383 257:0.26327 258:0.360042 259:0.260375 260:-0.0628415 261:0.4279 262:0.175731 263:-0.170491 264:-0.388281 265:-0.0395221 266:-1 267:0.540999 268:-0.428494 269:-0.0434506 270:0.349912 271:0.229056 272:-0.305813 273:-0.118721 274:0.436923 275:0.106709 276:-0.0848824 277:-0.266287 278:0.407114 279:-0.998959 280:0.158808 281:-0.223717 282:-0.39262 283:0.201074 284:0.184218 285:-0.145902 286:0.0584117 287:0.237691 288:-0.00466827 289:-0.0386302 290:-0.066154 291:0.0197107 292:-0.79676 293:0.233533 294:-0.405093 295:0.210792 296:0.567824 297:0.0800957 298:0.118076 299:0.128063 300:0.547491 301:0.0195854 302:-0.140055 303:-0.141848 304:0.165684 305:-0.954782 306:0.522735 307:-0.546923 308:-0.13497 309:0.297705 310:-0.0358777 311:0.145179 312:-0.125778 
1.02207124011402 0.9615474358350267 1:0.618695 2:-0.0585564 3:-0.400174 4:0.389059 5:0.693382 6:0.368404 7:0.206311 8:-0.265923 9:0.338042 10:-0.311825 11:-0.704863 12:0.130088 13:0.248224 14:0.494933 15:-0.150997 16:-0.11566 17:0.829338 18:0.577094 19:-0.0240958 20:-0.210026 21:-0.354564 22:0.242329 23:-0.443388 24:-0.343067 25:0.0408892 26:0.357087 27:0.53585 28:0.0800748 29:-0.15633 30:0.680095 31:0.513791 32:0.0732042 33:-0.150076 34:-0.835941 35:-0.273227 36:-0.315772 37:-0.0276511 38:0.18187 39:-0.0586974 40:0.606612 41:0.00930098 42:-0.184395 43:0.196577 44:-0.0322068 45:-0.0278219 46:0.0508641 47:-0.794909 48:-0.202797 49:-0.943521 50:-0.734312 51:0.663887 52:0.0163199 53:0.752202 54:-0.0873837 55:0.0254587 56:0.284265 57:0.32627 58:-0.0704273 59:-0.122152 60:-0.109256 61:-0.0134207 62:-0.543715 63:-0.393257 64:-0.168716 65:0.0174108 66:0.733959 67:-0.16785 68:0.0698678 69:0.144601 70:0.32913 71:0.0650364 72:-0.551893 73:-0.00633407 74:0.254558 75:-0.570732 76:-0.53183 77:0.278414 78:0.0317605 79:0.473106 80:-0.0105313 81:-0.113878 82:0.493949 83:0.0204449 84:0.176495 85:0.0983851 86:-0.0495873 87:0.109163 88:-0.576011 89:-0.907605 90:0.498494 91:0.742794 92:0.373605 93:0.115841 94:-0.25668 95:0.521873 96:0.343386 97:0.14378 98:0.161543 99:-0.167884 100:0.190782 101:-0.653085 102:-0.383714 103:0.00670991 104:0.582748 105:0.302993 106:0.0415021 107:-0.145679 108:0.433176 109:0.221903 110:0.492932 111:0.55686 112:0.142831 113:0.192063 114:-0.200016 115:-0.202385 116:0.197619 117:0.0184502 118:0.26307 119:0.0726289 120:-0.0982891 121:0.590808 122:-0.27353 123:0.934303 124:-0.166055 125:-0.0462482 126:0.238845 127:-0.0444304 128:-0.468773 129:-0.457178 130:0.81912 131:0.157116 132:-0.511618 133:-0.0419538 134:0.439285 135:-0.839499 136:0.467519 137:-0.449365 138:0.28684 139:0.582356 140:0.611964 141:0.268409 142:0.274604 143:-0.0757887 144:0.0622814 145:-0.530249 146:0.31921 147:0.480899 148:-1 149:0.557364 150:-0.109202 151:0.70429 152:-0.00665089 153:0.0699264 154:-0.12326 155:0.0390724 156:0.417697 157:-0.0308956 158:-0.250116 159:0.345631 160:0.544973 161:-0.720771 162:0.605814 163:-0.0266561 164:0.0827761 165:0.215376 166:0.382257 167:-0.49025 168:0.00444527 169:0.248674 170:-0.0661698 171:-0.464047 172:-0.0673889 173:0.0693784 174:-0.605287 175:0.779904 176:0.0269887 177:0.239503 178:-0.229534 179:0.0733225 180:-0.0429113 181:-0.00502785 182:-0.317291 183:0.0774743 184:-0.767208 185:0.207001 186:0.519196 187:-0.632529 188:0.570948 189:-0.416741 190:0.123102 191:-0.0608913 192:0.109709 193:-0.0699042 194:-0.400295 195:0.362139 196:0.221159 197:-0.781484 198:-0.109888 199:0.473382 200:-0.689802 201:0.632139 202:-0.498906 203:-0.499806 204:0.567364 205:-0.319473 206:0.306299 207:0.246084 208:-0.275104 209:0.232885 210:-0.30817 211:-0.166283 212:0.910814 213:-0.417152 214:0.141444 215:-0.293875 216:-0.19848 217:0.844989 218:-0.228368 219:0.217793 220:-0.354775 221:0.310681 222:-0.0395936 223:0.156126 224:0.0131333 225:1 226:-0.0608707 227:0.134204 228:-0.0734267 229:-0.376013 230:0.996544 231:-0.426592 232:-0.345479 233:-0.367063 234:-0.0421391 235:0.124548 236:0.39876 237:-0.311877 238:0.51404 239:-0.25482 240:0.582542 241:0.195385 242:0.324263 243:0.20969 244:-0.636205 245:-0.0147592 246:-0.301074 247:0.227933 248:0.0423936 249:0.416403 250:-0.226712 251:0.513833 252:-0.300784 253:0.159884 254:0.000214963 255:0.31858 256:0.0525908 257:-0.582905 258:0.465753 259:-0.16801 260:0.200794 261:-0.0991829 262:0.471687 263:-0.0957991 264:0.142505 265:-0.55891 266:0.444924 267:0.663852 268:0.437845 269:0.14929 270:-0.313954 271:-0.0258761 272:-0.656479 273:-0.189375 274:-0.0725234 275:0.686014 276:0.0875166 277:0.173304 278:-0.578728 279:0.5067 280:0.2305 281:0.535017 282:-0.206362 283:-0.322153 284:0.262667 285:-0.194682 286:-0.477237 287:-0.280603 288:0.520654 289:-0.183668 290:0.191508 291:-0.797988 292:0.249439 293:0.558426 294:0.0234165 295:-0.258064 296:-0.367904 297:0.184266 298:0.480146 299:0.0578694 300:-0.153424 301:0.601998 302:0.0613153 303:0.187198 304:-0.875262 305:0.697715 306:0.398577 307:-0.160322 308:0.168829 309:-0.223894 310:0.0126469 311:-0.0132449 312:0.249598 
0.7338217298778628 0.5121614171712892 1:0.794625 2:-0.0425608 3:0.360486 4:-0.0619372 5:-0.770748 6:-0.661613 7:0.0587096 8:0.0725189 9:-0.141232 10:-0.190156 11:-0.284637 12:-0.0179448 13:0.698809 14:0.911077 15:-0.154486 16:0.242732 17:-0.253944 18:-0.530587 19:-0.926717 20:-0.219056 21:0.148871 22:-0.376759 23:-0.03606 24:0.102612 25:-0.220007 26:0.315569 27:0.942955 28:-0.125318 29:0.0909046 30:-0.356188 31:-0.655005 32:-0.644583 33:-0.0633973 34:0.191476 35:-0.227831 36:-0.223245 37:0.153694 38:-0.0788911 39:0.256451 40:0.926601 41:-0.158612 42:-0.00794669 43:-0.31645 44:-0.56191 45:-0.605311 46:-0.133924 47:0.346975 48:0.00483388 49:0.187608 50:-0.223744 51:-0.0563523 52:0.218143 53:0.84405 54:-0.0979594 55:0.25036 56:-0.207529 57:-0.305341 58:-0.627734 59:-0.207711 60:0.363147 61:-0.319999 62:-0.349647 63:-0.157225 64:0.13603 65:0.158922 66:0.77769 67:-0.0879035 68:0.282427 69:-0.225086 70:-0.589945 71:0.121641 72:-0.251486 73:0.117829 74:-0.211787 75:0.0281452 76:0.0644301 77:0.345579 78:-0.044476 79:0.723416 80:-0.0858975 81:0.244555 82:0.282883 83:-0.289172 84:-0.342573 85:-0.57196 86:-0.101849 87:0.326237 88:0.278623 89:-0.234688 90:0.48783 91:-0.00529952 92:0.524563 93:0.114729 94:0.277848 95:0.115683 96:-0.508461 97:-0.0370422 98:-0.119187 99:0.0501579 100:0.259481 101:-0.0210379 102:-0.325337 103:0.0926573 104:0.407484 105:0.378515 106:0.182894 107:0.320446 108:0.111799 109:-0.1087 110:-0.0503478 111:0.121631 112:0.300968 113:-0.511057 114:0.111734 115:-0.435618 116:-0.14831 117:0.315317 118:0.348117 119:0.215473 120:0.589382 121:0.0442532 122:-0.0350432 123:-0.144249 124:-0.383258 125:0.488958 126:0.127034 127:0.0796406 128:-0.468278 129:-0.393133 130:-0.0240092 131:0.195295 132:-0.438057 133:1 134:-0.247748 135:0.277207 136:0.0233691 137:-0.423223 138:0.248909 139:0.272283 140:0.38858 141:-0.0199838 142:-0.00570793 143:0.399112 144:0.434135 145:-0.880854 146:0.869534 147:-0.430001 148:0.0752502 149:-0.274259 150:-0.332354 151:-0.316487 152:0.034139 153:0.195453 154:0.00338343 155:0.0602235 156:-0.186767 157:0.280071 158:-1 159:0.889411 160:-0.387346 161:0.287377 162:-0.0725901 163:-0.350647 164:0.192651 165:-0.288932 166:-0.362105 167:-0.175016 168:-0.165678 169:-0.33463 170:0.159551 171:-0.985982 172:0.877339 173:-0.69014 174:0.292247 175:-0.241411 176:-0.564655 177:-0.270628 178:-0.257722 179:-0.503329 180:0.246807 181:0.00676639 182:-0.13759 183:0.293997 184:-0.974851 185:0.662726 186:-0.440574 187:0.219487 188:-0.120225 189:-0.149182 190:-0.0187012 191:0.0624124 192:-0.243488 193:0.015616 194:-0.0417079 195:0.0916074 196:0.212684 197:-0.950626 198:0.583147 199:-0.351692 200:0.561434 201:0.0778218 202:-0.531677 203:0.0749377 204:-0.0683803 205:-0.452291 206:0.278323 207:-0.383635 208:-0.347642 209:0.212036 210:-1 211:0.634603 212:-0.575386 213:0.391534 214:-0.0229152 215:-0.685592 216:0.141427 217:-0.141916 218:0.0106149 219:0.36374 220:-0.0746506 221:0.0517589 222:0.322192 223:-0.827148 224:0.589548 225:-0.340575 226:0.374267 227:0.156319 228:-0.661475 229:-0.0162132 230:-0.27434 231:0.285649 232:0.00145981 233:-0.161984 234:0.0305774 235:0.513031 236:-0.0549682 237:0.26009 238:-0.617153 239:-0.216097 240:0.143651 241:0.165202 242:-0.0164883 243:0.0914493 244:0.360398 245:0.224811 246:0.257303 247:0.170426 248:0.347651 249:0.166019 250:0.335845 251:-0.210211 252:0.260855 253:0.189665 254:-0.097957 255:-0.701363 256:-0.660826 257:-0.331836 258:-0.202184 259:0.300557 260:-0.199582 261:0.544478 262:0.236819 263:-0.0270032 264:-0.583026 265:0.440112 266:0.514089 267:-0.0970323 268:-0.853094 269:0.430279 270:0.607372 271:-0.430993 272:0.49035 273:0.42273 274:0.345105 275:0.314195 276:0.202599 277:-0.674659 278:0.262553 279:0.426027 280:-0.199096 281:-0.585908 282:-0.0649622 283:-0.130567 284:-0.443974 285:0.119887 286:-0.467077 287:0.435337 288:0.3401 289:-0.0837854 290:-0.608332 291:0.0978504 292:0.272551 293:-0.0542149 294:-0.430082 295:0.364462 296:0.559492 297:-0.23029 298:0.254097 299:-0.161958 300:0.486875 301:0.363371 302:-0.0883166 303:-0.470023 304:0.204718 305:0.6884 306:-0.0714491 307:-0.873565 308:0.429259 309:0.621572 310:-0.594668 311:0.604017 312:-0.64998 
1.194828461428329 0.7590226768362641 1:0.0113986 2:-0.891148 3:0.69135 4:-0.264498 5:-0.202526 6:0.339786 7:0.292362 8:-0.328319 9:0.261244 10:-0.501256 11:-0.0225459 12:-0.0760745 13:-0.128921 14:1 15:-0.551413 16:0.517851 17:-0.195102 18:-0.459676 19:-0.170322 20:0.389086 21:-0.182023 22:-0.571684 23:-0.448902 24:-0.563142 25:-0.364719 26:0.252029 27:0.862192 28:-0.10913 29:0.251334 30:-0.229437 31:-0.445693 32:-0.0462833 33:0.175169 34:-0.121143 35:-0.853025 36:-0.41784 37:-0.308021 38:-0.155324 39:0.119072 40:0.780483 41:-0.117161 42:0.323932 43:-0.240665 44:0.00071196 45:-0.241251 46:-0.0495945 47:0.0199782 48:-0.906955 49:-0.467655 50:-0.355552 51:-0.281926 52:0.12546 53:0.61499 54:0.0699339 55:0.303359 56:-0.199476 57:0.122732 58:-0.664579 59:-0.0771128 60:-0.0490354 61:-1 62:-0.436041 63:0.662222 64:0.23634 65:-0.15334 66:0.379679 67:-0.0895315 68:0.69143 69:-0.0893332 70:0.359836 71:-0.575005 72:-0.39063 73:-0.1798 74:-0.591804 75:-0.727694 76:0.628034 77:0.152493 78:-0.0890758 79:0.114054 80:-0.476159 81:0.388324 82:-0.12176 83:0.118266 84:-0.556535 85:-0.086966 86:-0.203349 87:0.173323 88:-0.64432 89:-0.0115307 90:0.403711 91:0.535353 92:-0.00174611 93:-0.591537 94:0.449354 95:-0.0767776 96:0.275232 97:-0.401516 98:-0.0496011 99:-0.722786 100:-0.193064 101:-0.775735 102:-0.0973705 103:-0.0115284 104:-0.173095 105:0.337185 106:-0.0840582 107:0.314325 108:-0.478859 109:0.556311 110:-0.465756 111:0.068673 112:-0.384821 113:-0.107204 114:-0.481094 115:0.0187478 116:0.208158 117:-0.464399 118:0.681678 119:0.113884 120:0.00353588 121:-0.302176 122:0.0172543 123:-0.349137 124:-0.103027 125:-0.00427995 126:-0.169562 127:-0.550907 128:0.157671 129:-0.163527 130:-0.0224423 131:0.714977 132:-0.0359456 133:-0.222479 134:0.0597913 135:-0.0290076 136:-0.296229 137:0.103167 138:0.0411213 139:-0.602695 140:-0.115978 141:-0.237186 142:-0.224087 143:0.192592 144:0.62603 145:-0.247392 146:0.024299 147:-0.116385 148:-0.431181 149:-0.858012 150:0.490596 151:0.316342 152:-0.721391 153:0.0629558 154:-0.304525 155:-0.133409 156:-0.296261 157:-0.108452 158:-0.233018 159:0.171108 160:-0.502453 161:-0.975427 162:-0.869604 163:0.140925 164:0.737629 165:-0.190023 166:0.381905 167:-0.320833 168:-0.2711 169:0.310405 170:-0.572432 171:-0.225632 172:0.319238 173:-0.357134 174:-0.360303 175:-0.859203 176:-0.209563 177:0.00463266 178:0.200393 179:0.563828 180:0.0745815 181:-0.0586861 182:0.132987 183:0.857866 184:-0.459618 185:0.346769 186:-0.295978 187:-0.257124 188:0.0650946 189:0.103943 190:-0.170552 191:-0.279156 192:-0.259867 193:-0.508693 194:-0.336428 195:0.0807528 196:0.722099 197:-0.18553 198:0.225191 199:-0.188961 200:-0.258629 201:-0.100081 202:-0.0719323 203:0.0158612 204:-0.433376 205:-0.463195 206:-0.305286 207:-0.722433 208:0.404282 209:0.732299 210:-0.0367142 211:0.344011 212:-0.129626 213:-0.242127 214:-0.157048 215:-0.04981 216:0.0120847 217:-0.556192 218:-0.700321 219:-0.157255 220:-0.0463589 221:0.419714 222:0.45064 223:0.194264 224:0.67319 225:-0.111807 226:0.140393 227:-0.532331 228:-0.430215 229:-0.101101 230:-0.253225 231:-0.463939 232:-0.290677 233:0.0782241 234:0.159396 235:0.123739 236:-0.129729 237:0.646094 238:-0.629584 239:-0.0540848 240:-0.574997 241:-0.146505 242:-0.43591 243:0.334291 244:-0.133738 245:-0.235853 246:0.335827 247:0.15769 248:-0.00308425 249:-0.198296 250:0.57059 251:-0.304592 252:-0.0302298 253:-0.291074 254:-0.37357 255:-0.654298 256:-0.0465773 257:-0.376427 258:-0.0408488 259:-0.25875 260:-0.193351 261:-0.176469 262:-0.750198 263:0.427839 264:-0.306327 265:0.0704775 266:-0.329921 267:0.478886 268:0.0281705 269:0.0327707 270:-0.247187 271:0.108585 272:0.307139 273:0.19513 274:0.294505 275:-0.115516 276:0.831549 277:-0.504919 278:0.265493 279:-0.821938 280:-0.220087 281:-0.0510199 282:-0.342328 283:-0.188575 284:0.333638 285:-0.273748 286:-0.145646 287:0.455047 288:0.0283101 289:0.203674 290:-0.341806 291:-0.0766764 292:-0.303205 293:-0.63002 294:0.0851248 295:-0.110088 296:0.0453031 297:0.0544117 298:-0.173397 299:-0.162429 300:0.562215 301:0.087884 302:-0.0619235 303:-0.188533 304:-0.138146 305:-0.805859 306:0.00104684 307:0.518019 308:-0.114406 309:-0.0539766 310:-0.0500949 311:0.393676 312:-0.268348 
1.064521578040081 0.7354831567905308 1:-0.191167 2:-0.180539 3:0.032214 4:-0.940036 5:0.280817 6:-0.211121 7:0.00656308 8:-0.226016 9:-0.0442546 10:-0.166181 11:-0.257383 12:0.560555 13:0.318633 14:0.768141 15:-0.451465 16:0.00850037 17:-0.752984 18:0.6126 19:-0.29677 20:-0.336564 21:-0.289071 22:-0.528943 23:0.120429 24:-0.32074 25:0.281763 26:0.170611 27:0.664747 28:-0.338044 29:-0.176484 30:-0.696949 31:0.819486 32:-0.0068125 33:-0.340392 34:-0.315204 35:-0.526045 36:-0.145417 37:-0.156026 38:0.169048 39:-0.232733 40:0.690311 41:-0.347113 42:-0.283687 43:-0.569272 44:0.81653 45:-0.0939501 46:-0.398834 47:-0.254036 48:-0.370012 49:-0.0927257 50:-0.413994 51:-0.0466397 52:-0.267188 53:0.707668 54:-0.318244 55:-0.205733 56:-0.57756 57:0.857592 58:-0.290332 59:-0.304158 60:-0.205015 61:-0.338712 62:-0.154388 63:-0.123892 64:-0.0525051 65:-0.224006 66:0.714137 67:-0.265245 68:-0.229704 69:-0.602069 70:1 71:-0.191956 72:-0.481999 73:-0.232749 74:-0.231074 75:0.000620216 76:-0.138424 77:-0.171008 78:-0.323142 79:0.64229 80:-0.228413 81:-0.203704 82:-0.576832 83:0.791964 84:-0.319982 85:-0.366315 86:-0.0917029 87:0.0907077 88:-0.00129052 89:-0.919625 90:0.162319 91:-0.0780841 92:0.480378 93:0.0641462 94:-0.148702 95:-0.737967 96:0.435334 97:-0.259408 98:-0.0923666 99:-0.27773 100:-0.027513 101:0.0590231 102:-0.724592 103:-0.152206 104:-0.0816964 105:0.35495 106:0.217447 107:0.224276 108:-0.731409 109:0.214258 110:-0.506071 111:-0.03834 112:-0.491521 113:-0.504404 114:0.0504554 115:-0.305665 116:0.149282 117:-0.304679 118:0.308145 119:0.227784 120:0.271446 121:-0.410761 122:0.200781 123:-0.447184 124:-0.252735 125:-0.394882 126:-0.4225 127:-0.0234501 128:-0.451411 129:0.242835 130:-0.142963 131:0.278276 132:0.260354 133:0.44824 134:-0.325797 135:0.598515 136:-0.397809 137:0.0582811 138:-0.466105 139:-0.822834 140:0.0456306 141:-0.18859 142:-0.319083 143:0.0936529 144:0.0991952 145:0.19687 146:0.656118 147:-0.628747 148:0.144716 149:-0.334191 150:-0.0117422 151:-0.559991 152:-0.329824 153:-0.0204532 154:-0.126962 155:0.241424 156:-0.349723 157:-0.130107 158:-0.295001 159:0.665994 160:-0.180143 161:0.168736 162:-0.563548 163:-0.00842674 164:-0.592555 165:-0.399444 166:-0.0811141 167:-0.0241036 168:-0.428606 169:0.817303 170:-0.342943 171:-0.472872 172:0.462363 173:-0.349835 174:-0.0360326 175:-0.0721072 176:0.106381 177:-0.493889 178:0.337822 179:-0.0533059 180:0.129154 181:-0.364107 182:0.396075 183:-0.144272 184:-0.500433 185:0.539348 186:-0.3684 187:0.0670797 188:-0.30116 189:0.150512 190:-0.315495 191:0.226515 192:-0.247191 193:-0.0101893 194:0.0188704 195:0.108176 196:-0.396027 197:-0.681194 198:0.402273 199:-0.346386 200:0.243804 201:-0.0891362 202:-0.128959 203:-0.70543 204:0.110211 205:-0.0574005 206:0.452172 207:-0.370883 208:-0.010555 209:-0.23715 210:-0.452189 211:0.555096 212:-0.323684 213:0.369257 214:-0.184528 215:0.144208 216:-0.149984 217:0.159813 218:-0.393147 219:-0.0944375 220:-0.258302 221:-0.294392 222:-0.0457882 223:-0.376902 224:0.542736 225:-0.376954 226:0.500446 227:-0.206985 228:-0.115994 229:-0.204049 230:0.294434 231:0.0776908 232:0.347952 233:-0.160928 234:0.151755 235:0.523458 236:-0.11102 237:0.0788032 238:-0.0229671 239:0.0805064 240:-0.390807 241:-0.266687 242:-0.584029 243:-0.150191 244:0.240388 245:-0.0268196 246:-0.201037 247:-0.0752099 248:0.544769 249:0.068995 250:-0.100589 251:-0.0756414 252:-0.13622 253:-0.265951 254:0.107588 255:-0.29877 256:0.00420484 257:0.119995 258:-0.0669909 259:-0.217286 260:-0.515284 261:0.362333 262:0.0155522 263:-0.057915 264:-0.103995 265:-0.222039 266:-0.707419 267:-0.0487921 268:-0.404507 269:0.391024 270:0.372282 271:0.250924 272:-0.25711 273:-0.384137 274:0.346699 275:0.201092 276:-0.0407838 277:-0.0884112 278:-0.190648 279:-0.758967 280:0.412641 281:-0.522384 282:-0.321902 283:0.340251 284:0.0453474 285:-0.00242955 286:-0.0293148 287:0.270123 288:0.125603 289:-0.11381 290:-0.0111222 291:-0.0421736 292:-0.420473 293:0.188926 294:-0.513144 295:0.094967 296:0.503784 297:0.0662739 298:0.0377451 299:-0.0560434 300:0.264797 301:0.170556 302:0.0264135 303:0.108088 304:-0.529192 305:-0.79465 306:0.554858 307:-0.35862 308:-0.164974 309:0.421434 310:0.0209105 311:0.161106 312:-0.00657912 
0.7249718533461292 0.5358114678303061 1:0.145096 2:-0.211825 3:0.365864 4:-0.258879 5:-0.944858 6:0.247416 7:-0.482066 8:0.357225 9:-0.232156 10:-0.422048 11:0.76341 12:-0.831789 13:0.855745 14:0.342249 15:-0.338256 16:0.463794 17:0.00560285 18:-0.708722 19:-0.108999 20:-0.260856 21:0.525557 22:-0.14466 23:-0.612985 24:0.287892 25:-0.458121 26:0.74243 27:0.457878 28:-0.00867148 29:0.295223 30:-0.155242 31:-0.871988 32:-0.167373 33:-0.510491 34:0.266544 35:0.0554934 36:-0.213008 37:0.726163 38:-0.72521 39:0.465327 40:0.687062 41:-0.19574 42:0.0138998 43:-0.211866 44:-0.402328 45:0.0435191 46:-0.130425 47:0.41432 48:-0.0122982 49:-0.324957 50:-0.00467247 51:0.0134243 52:0.158106 53:0.823935 54:-0.194483 55:0.194355 56:-0.234469 57:-0.626964 58:-0.320497 59:-0.134439 60:0.0950684 61:0.123966 62:-0.794345 63:0.534104 64:0.077424 65:0.867047 66:0.609154 67:-0.224604 68:0.483796 69:-0.092335 70:-0.590462 71:0.0903085 72:-0.476165 73:0.546902 74:-0.0567567 75:-0.664879 76:0.761904 77:-0.0880007 78:0.517397 79:0.199266 80:-0.242625 81:0.422351 82:0.0194619 83:-0.325246 84:0.132536 85:-0.22086 86:0.377344 87:0.507102 88:-0.253283 89:0.30919 90:0.240277 91:0.92044 92:0.361358 93:0.00306871 94:-0.1104 95:0.360789 96:-0.0211927 97:0.184908 98:-0.0754063 99:0.711239 100:-0.136528 101:-0.186904 102:0.130932 103:-0.299292 104:0.181966 105:0.192045 106:0.0656031 107:0.169288 108:0.0963142 109:0.137038 110:0.152988 111:0.367332 112:0.844511 113:-0.337715 114:-0.201826 115:0.0284963 116:0.0683962 117:0.291769 118:0.0861354 119:-0.0135706 120:0.319362 121:0.500726 122:0.294071 123:0.225343 124:0.0595531 125:0.748611 126:-0.34133 127:-0.551191 128:0.13336 129:-0.58011 130:-0.0295228 131:0.33797 132:-0.0688259 133:0.257872 134:0.0372168 135:0.369 136:0.461492 137:-0.167916 138:0.867406 139:-0.0776169 140:-0.260058 141:0.48163 142:-0.43789 143:-0.130265 144:0.0930184 145:-0.282935 146:0.628738 147:0.0342519 148:0.415075 149:0.19903 150:0.0732489 151:0.726772 152:-0.601974 153:-0.0661045 154:0.0701197 155:-0.638447 156:0.434563 157:-0.115226 158:-0.532079 159:0.563033 160:-0.34888 161:-0.0807553 162:0.00570308 163:0.220775 164:0.570066 165:-0.397346 166:0.127487 167:-0.23608 168:-0.182775 169:-0.349828 170:-0.0454077 171:-0.632118 172:0.545143 173:-0.734813 174:-0.064388 175:0.129383 176:-0.000781598 177:0.0927879 178:-0.440963 179:-0.145686 180:0.263088 181:-0.0609805 182:-0.149539 183:0.143668 184:-0.922336 185:0.450582 186:-0.470194 187:-0.0393228 188:0.116868 189:-0.240012 190:0.220658 191:-0.139503 192:0.0969695 193:-0.302864 194:0.271163 195:0.059059 196:0.142624 197:-0.884617 198:0.408182 199:-0.146708 200:0.197898 201:0.148586 202:-0.305804 203:0.0975851 204:-0.221256 205:0.0837635 206:-0.394989 207:-0.0411577 208:0.0517657 209:0.0576458 210:-0.927437 211:0.3389 212:-0.386228 213:0.377954 214:-0.160967 215:-0.581709 216:0.652854 217:-0.370346 218:-0.242809 219:-0.0846678 220:0.132504 221:1 222:0.0406034 223:-0.797234 224:0.265956 225:-0.449109 226:0.324739 227:0.0281841 228:-0.595562 229:0.0792549 230:-0.53213 231:0.338785 232:-0.0166791 233:-0.433891 234:-0.304232 235:0.191426 236:-0.640551 237:0.25774 238:-0.335979 239:-0.00693737 240:0.225349 241:-0.273336 242:0.234862 243:-0.307108 244:-0.155739 245:0.0691878 246:0.46542 247:-0.623734 248:0.132992 249:-0.316697 250:0.396286 251:-0.418211 252:0.172988 253:0.56788 254:-0.378835 255:0.273614 256:-0.511827 257:-0.832171 258:0.921193 259:0.433857 260:0.30557 261:0.365758 262:-0.297742 263:0.292396 264:-0.481899 265:0.097077 266:0.555327 267:-0.468817 268:0.0368978 269:-0.262426 270:-0.624952 271:0.919966 272:-0.137734 273:-0.205442 274:0.427881 275:-0.0894747 276:0.285265 277:-0.627451 278:-0.142572 279:0.416277 280:-0.420413 281:0.253231 282:-0.636013 283:-0.925021 284:0.950278 285:-0.472663 286:-0.0961578 287:0.427137 288:-0.00781733 289:0.232929 290:-0.247443 291:-0.304748 292:0.209402 293:-0.409354 294:-0.255669 295:-0.0217568 296:-0.420541 297:0.345983 298:-0.0438155 299:-0.0477618 300:0.296396 301:-0.344282 302:0.416624 303:-0.033843 304:-0.359814 305:0.557782 306:-0.570424 307:0.42489 308:0.00676776 309:-0.485159 310:0.395348 311:-0.319065 312:-0.0394446 
0.6976341975709991 0.5550921632631578 1:0.0245243 2:0.0363395 3:0.00790413 4:-0.119561 5:-0.329287 6:0.526433 7:0.0776078 8:-0.259179 9:0.0709615 10:-0.811153 11:0.755136 12:0.511688 13:0.0728772 14:0.332045 15:-0.148043 16:0.28037 17:-0.0532552 18:-0.371325 19:0.117333 20:-0.182625 21:-0.577037 22:0.0445376 23:-0.0820772 24:0.398419 25:0.422048 26:0.338292 27:0.445163 28:0.0875167 29:-0.317678 30:-0.511585 31:-0.141709 32:0.1111 33:-0.154505 34:-0.205339 35:-0.103558 36:-0.245204 37:0.972823 38:0.586073 39:-0.265636 40:0.54499 41:-0.154618 42:-0.157934 43:-0.230189 44:-0.173587 45:-0.0636107 46:-0.675145 47:-0.147302 48:0.437821 49:-0.504045 50:0.402837 51:-0.0583224 52:-0.258988 53:0.622244 54:-0.15683 55:-0.106975 56:-0.176926 57:-8.16093e-006 58:-0.22586 59:-0.694015 60:-0.286725 61:0.135718 62:0.0413435 63:0.752997 64:-0.151579 65:-0.114175 66:0.529194 67:-0.353405 68:0.0666924 69:0.00818841 70:0.153384 71:-0.098929 72:-0.73832 73:0.219027 74:-0.337183 75:0.0564475 76:0.920286 77:0.044746 78:-0.079413 79:0.665047 80:-0.265257 81:-0.15403 82:0.119545 83:0.0527663 84:0.0744619 85:-0.557382 86:0.250315 87:0.225396 88:-0.286409 89:0.555762 90:-0.185227 91:0.298137 92:0.512625 93:-0.0629187 94:-0.265957 95:0.145964 96:0.0582683 97:0.300881 98:-0.411793 99:0.00529837 100:-0.496395 101:-0.390312 102:0.469122 103:-0.424251 104:-0.0689367 105:0.327057 106:0.155144 107:-0.0389939 108:0.0751965 109:0.109402 110:0.158428 111:0.195822 112:0.290631 113:-0.913034 114:-0.155956 115:0.573236 116:-0.0238739 117:-0.239238 118:0.0913103 119:0.185437 120:-0.174487 121:0.0423128 122:0.159651 123:0.472983 124:-0.0154353 125:0.506612 126:-0.291667 127:0.208358 128:0.194213 129:0.243209 130:-0.639746 131:0.237152 132:0.262838 133:-0.24894 134:0.0311698 135:0.0467002 136:0.672091 137:-0.276561 138:0.564116 139:-0.0755008 140:-0.109598 141:0.313449 142:0.112573 143:0.0172667 144:0.0203038 145:0.0801972 146:0.373802 147:0.09345 148:0.0179185 149:0.355712 150:-0.356134 151:0.973694 152:-0.317163 153:0.304528 154:-0.470055 155:0.0343713 156:-0.105306 157:-0.00758784 158:0.0226155 159:0.344802 160:-0.0884708 161:-0.0309709 162:0.487876 163:-0.441166 164:0.700589 165:-0.0910817 166:-0.107426 167:-0.298968 168:0.337433 169:-0.40203 170:-0.237058 171:-0.130564 172:0.699155 173:-0.156307 174:0.00334674 175:0.996478 176:-0.10952 177:0.0410881 178:-0.407043 179:0.130077 180:0.281847 181:-0.0311534 182:-0.50291 183:0.12884 184:-0.571398 185:0.477699 186:-0.190629 187:-0.050149 188:0.242596 189:-0.15161 190:0.161077 191:-0.334808 192:0.186794 193:0.0823053 194:0.895353 195:-0.281031 196:0.297155 197:-0.709462 198:0.079891 199:-0.253839 200:0.487283 201:0.589909 202:-0.757039 203:0.0499769 204:0.179569 205:0.437917 206:-0.041865 207:0.184343 208:-0.312648 209:0.190208 210:-0.796755 211:0.155153 212:-0.297562 213:-0.00677753 214:0.411111 215:-0.662864 216:0.509047 217:-0.166418 218:0.299825 219:-0.229467 220:0.0914603 221:0.2226 222:0.0573399 223:-0.822237 224:0.207931 225:-0.15369 226:0.139315 227:0.554084 228:-0.204806 229:0.302412 230:-0.410602 231:0.00642829 232:-0.154798 233:0.136323 234:-0.327057 235:0.0291461 236:-0.918075 237:0.232246 238:-0.796828 239:0.0556117 240:0.133262 241:-0.285863 242:0.685011 243:-0.173091 244:-0.395583 245:-0.147838 246:0.59767 247:-0.0516762 248:0.113641 249:-0.726169 250:0.211904 251:-0.342145 252:0.439518 253:0.244977 254:-0.437111 255:0.277787 256:-0.475694 257:0.198894 258:-0.321839 259:0.00980959 260:0.0570718 261:0.0441968 262:-0.88331 263:0.244406 264:-0.487365 265:-0.117042 266:0.367864 267:-0.438391 268:0.29755 269:0.140154 270:0.346087 271:0.0571426 272:-0.0828771 273:0.408487 274:0.0639318 275:-0.524046 276:0.368931 277:-0.543437 278:-0.144412 279:0.250585 280:-0.0764195 281:0.437915 282:-0.487765 283:-0.107369 284:0.110666 285:0.121207 286:-0.481852 287:0.141926 288:-0.0081621 289:0.32669 290:-0.359526 291:0.0337843 292:0.445566 293:-0.164005 294:0.233855 295:-0.236488 296:0.232962 297:0.211117 298:0.560948 299:0.208177 300:0.301224 301:-0.257472 302:0.3025 303:0.105973 304:-0.00292376 305:0.895267 306:0.0489117 307:-0.00215482 308:-0.0191287 309:-0.589529 310:-0.107294 311:0.512682 312:-0.275768 
0.6517873428642307 0.6071715172736798 1:-0.0593265 2:0.0489856 3:0.889684 4:-0.0257371 5:-0.779946 6:0.272925 7:-0.17741 8:-0.0911145 9:0.351956 10:-0.784481 11:-0.262126 12:0.556485 13:0.331712 14:0.589902 15:-0.26185 16:0.238136 17:-0.246155 18:-0.913824 19:0.1006 20:-0.236324 21:-0.29442 22:-0.0842054 23:-0.108019 24:0.0205721 25:-0.15597 26:-0.0377351 27:0.325625 28:-0.172519 29:0.237748 30:-0.465666 31:-0.822604 32:0.221825 33:0.0136767 34:-0.0113879 35:0.0378211 36:-0.294222 37:0.509193 38:0.453803 39:0.113393 40:0.246333 41:-0.266829 42:0.449341 43:-0.153962 44:-0.922059 45:0.0314417 46:-0.34814 47:0.0215273 48:0.623016 49:-0.536535 50:-0.29829 51:0.660478 52:-0.21655 53:0.134816 54:-0.292653 55:0.389559 56:-0.221945 57:-0.245644 58:-0.0143607 59:-0.0669251 60:0.333672 61:0.10922 62:-0.453954 63:0.236763 64:0.431488 65:-0.133024 66:0.257175 67:-0.346203 68:0.608436 69:0.000617862 70:-0.768565 71:0.168768 72:-0.514618 73:0.102506 74:0.429328 75:-0.249421 76:-0.370141 77:-0.162366 78:-0.178787 79:0.0525996 80:-0.189516 81:0.180519 82:-0.0792846 83:-0.11581 84:-0.0186238 85:-0.537337 86:0.15582 87:0.0334663 88:-0.347458 89:-0.471818 90:0.529711 91:0.0979719 92:-0.0332875 93:-0.0680345 94:0.323481 95:0.103246 96:-0.278964 97:0.335627 98:0.0774609 99:0.491866 100:0.463074 101:-0.525318 102:-0.0539916 103:-0.526672 104:0.00508434 105:0.107437 106:0.0379529 107:0.150324 108:0.0686996 109:-0.0939522 110:0.135092 111:0.138821 112:0.823936 113:-0.224969 114:-0.0921672 115:0.006589 116:0.251606 117:-0.088668 118:0.0569775 119:-0.201295 120:0.365097 121:0.151401 122:-0.0716661 123:0.552695 124:-0.290372 125:0.65882 126:0.380761 127:-0.396005 128:-0.0122992 129:0.355331 130:-0.706315 131:0.121126 132:-0.267429 133:0.221779 134:-0.170677 135:-0.15769 136:0.36804 137:-0.425094 138:0.701059 139:0.190876 140:-0.0767816 141:-0.273366 142:-0.15675 143:-0.0223967 144:0.26483 145:-0.381806 146:0.310103 147:-0.197966 148:-0.107545 149:0.504032 150:0.00339782 151:-0.131837 152:-0.433002 153:0.337776 154:-0.411725 155:0.526843 156:0.0625107 157:0.315993 158:-0.676118 159:0.44683 160:-0.176157 161:0.153172 162:0.53328 163:-0.242759 164:0.210596 165:-0.312744 166:0.127979 167:0.0767186 168:0.618185 169:-0.2985 170:0.457292 171:-0.708473 172:0.32173 173:-0.508275 174:0.23624 175:0.515541 176:-0.626197 177:0.36322 178:-0.457923 179:-0.11282 180:0.0964803 181:0.0628086 182:-0.0154631 183:0.383984 184:-0.89607 185:0.557536 186:-0.22217 187:-0.0706459 188:0.18597 189:-0.523517 190:0.63797 191:-0.286496 192:0.214409 193:-0.498494 194:0.101041 195:0.386116 196:0.38647 197:-0.937675 198:0.275808 199:-0.214807 200:0.30916 201:0.511154 202:-0.716135 203:-0.480641 204:-0.539923 205:0.192938 206:-0.421621 207:0.220533 208:0.75026 209:0.427329 210:-0.760327 211:0.446202 212:-0.42203 213:0.0753416 214:0.39591 215:-0.465494 216:0.106898 217:-0.403029 218:0.211884 219:-0.478764 220:-0.20797 221:-0.132766 222:0.32532 223:-0.800895 224:0.326078 225:-0.108948 226:0.275823 227:0.353323 228:-0.837475 229:-0.183195 230:-0.401439 231:0.455717 232:-0.341625 233:0.220238 234:-0.0377993 235:0.254551 236:-0.816688 237:0.179444 238:-0.629821 239:0.136222 240:0.410095 241:-0.384846 242:0.269826 243:-0.0518267 244:0.176778 245:-0.261619 246:0.0793139 247:-0.456816 248:0.48699 249:-0.023204 250:0.3396 251:-0.258577 252:0.159026 253:0.598701 254:-0.225666 255:0.225562 256:-0.258519 257:0.124554 258:-0.36846 259:0.124559 260:-0.231281 261:0.80298 262:-0.26331 263:0.376847 264:-0.287049 265:-0.168555 266:0.393847 267:-0.435045 268:-0.11718 269:-0.162239 270:-0.301945 271:0.706602 272:-0.200966 273:-0.846639 274:0.78745 275:-0.124774 276:0.594428 277:-0.21277 278:-0.195606 279:0.493437 280:-0.197789 281:0.0869491 282:-0.451859 283:-0.520746 284:0.216046 285:-0.671963 286:-0.137721 287:0.70915 288:0.0100372 289:0.219233 290:-0.360853 291:-0.628812 292:0.161273 293:-0.367324 294:-0.521317 295:-0.665707 296:-0.127432 297:0.106313 298:-0.206704 299:-0.00921724 300:0.69075 301:-0.0927599 302:0.232306 303:-0.220027 304:-0.7237 305:0.453482 306:-0.157921 307:0.031689 308:-0.531415 309:-0.493669 310:0.494542 311:-0.00180775 312:0.222227 
0.7364630736475205 0.7304096589158684 1:-0.088771 2:1 3:0.261311 4:-0.212055 5:0.11203 6:-0.6643 7:0.231499 8:-0.042125 9:-0.0160021 10:-0.470777 11:-0.0881239 12:0.00824162 13:0.319658 14:0.0810955 15:0.735626 16:-0.105459 17:-0.34503 18:0.288859 19:-0.676705 20:-0.177402 21:-0.0936739 22:-0.0403249 23:-0.491029 24:-0.0951951 25:0.299346 26:0.339285 27:0.338787 28:0.639818 29:-0.267017 30:-0.488868 31:-0.199931 32:-0.410025 33:-0.237583 34:-0.110693 35:-0.34939 36:-0.865537 37:0.0250092 38:0.225727 39:-0.174732 40:0.478192 41:0.37366 42:-0.133403 43:-0.399091 44:-0.0833322 45:-0.326653 46:-0.532388 47:-0.0802764 48:-0.236289 49:-0.326163 50:-0.324516 51:0.262023 52:0.0273501 53:0.480899 54:0.351469 55:-0.245953 56:-0.295088 57:0.109405 58:-0.350349 59:-0.271707 60:0.136962 61:-0.288545 62:-0.28234 63:-0.00541835 64:0.763552 65:-0.0285589 66:0.721516 67:0.132424 68:-0.237873 69:-0.393679 70:-0.332973 71:-0.278354 72:-0.235789 73:-0.335703 74:-0.521389 75:-0.27335 76:0.0470777 77:0.184594 78:0.123643 79:0.511575 80:0.159401 81:-0.372758 82:-0.172549 83:-0.136571 84:0.220013 85:-0.222443 86:0.456304 87:0.141835 88:-0.288944 89:-0.51025 90:0.415315 91:-0.343709 92:0.72487 93:0.0414136 94:-0.32066 95:-0.232125 96:-0.267906 97:-0.1751 98:-0.695348 99:-0.211819 100:0.425878 101:0.304454 102:-0.186757 103:0.10254 104:0.512283 105:0.615333 106:0.464992 107:-0.471054 108:-0.170064 109:0.241605 110:0.0173328 111:-0.627267 112:0.0764986 113:-0.298016 114:0.65047 115:-0.336385 116:0.195139 117:-0.0342496 118:0.622291 119:0.343933 120:-0.279448 121:-0.172045 122:0.329994 123:-0.0620445 124:-0.725929 125:-0.13146 126:0.141201 127:0.142466 128:-0.168237 129:0.263223 130:0.213583 131:0.501145 132:0.461293 133:-0.227836 134:0.163383 135:0.170997 136:-0.131224 137:-0.753491 138:0.00760392 139:0.16797 140:0.626041 141:-0.144389 142:-0.0755022 143:-0.17212 144:0.474412 145:0.428001 146:-0.0863463 147:0.0461797 148:-0.171574 149:-0.368174 150:-0.189936 151:0.0374321 152:0.291792 153:0.465505 154:-0.540031 155:0.229913 156:-0.144172 157:0.399594 158:0.511587 159:-0.0726856 160:-0.111047 161:0.0564192 162:-0.276562 163:-0.380503 164:0.691753 165:0.283835 166:0.0123613 167:-0.519602 168:0.121784 169:-0.179953 170:0.418661 171:0.500254 172:0.126123 173:-0.152152 174:-0.217198 175:-0.553401 176:-0.360511 177:0.24331 178:0.269308 179:0.514831 180:0.142142 181:0.093352 182:-0.0847639 183:0.61691 184:0.243892 185:0.0755132 186:0.0334912 187:-0.0848906 188:-0.330198 189:-0.151961 190:-0.0542971 191:0.251084 192:0.174078 193:-0.48801 194:0.0474247 195:-0.114335 196:0.590725 197:0.296329 198:-0.171265 199:0.276142 200:-0.0205628 201:-0.368388 202:-0.665485 203:0.224192 204:0.445325 205:-0.236441 206:-0.0692334 207:0.0502864 208:-0.286269 209:0.630969 210:0.316441 211:-0.00434983 212:0.00412917 213:0.00455687 214:-0.206365 215:-0.514367 216:0.530761 217:0.0519117 218:-0.35734 219:-0.196001 220:-0.00695904 221:-0.248398 222:0.631897 223:0.403814 224:-0.126253 225:0.105011 226:0.127171 227:-0.183779 228:-0.46853 229:-0.0148135 230:-0.0276092 231:-0.247799 232:-0.202209 233:0.139923 234:-0.0660423 235:0.492552 236:0.500535 237:-0.135941 238:-0.257163 239:-0.349374 240:0.0900011 241:0.117513 242:-0.0450339 243:-0.521369 244:0.304877 245:-0.324149 246:0.376886 247:0.276643 248:0.404847 249:0.575601 250:-0.025186 251:-0.0972269 252:-0.0285205 253:0.248238 254:0.389998 255:0.0729678 256:-0.558607 257:-0.15484 258:-0.438614 259:0.0586142 260:0.199905 261:0.355715 262:0.648461 263:0.0973105 264:-0.192311 265:-0.1036 266:0.107881 267:0.304871 268:0.491528 269:-0.252935 270:-0.0577303 271:-0.434965 272:0.246394 273:0.462904 274:0.266175 275:0.606713 276:0.253131 277:-0.381905 278:-0.0681604 279:0.350248 280:0.0565562 281:0.346823 282:-0.537053 283:0.188886 284:0.355358 285:0.415135 286:-0.278571 287:0.294282 288:0.604985 289:0.24866 290:-0.139462 291:-0.131335 292:0.304552 293:0.174563 294:-0.0073366 295:-0.43388 296:0.202549 297:-0.441456 298:0.247472 299:0.148897 300:0.320609 301:0.383038 302:-0.202473 303:0.61891 304:0.0795801 305:-0.379579 306:0.798972 307:1 308:-0.316425 309:-0.152304 310:-0.239174 311:0.356177 312:-0.234935 
1.406966702047084 1.222163467599822 1:-0.156625 2:0.117366 3:-0.634225 4:0.216991 5:0.761737 6:-0.503501 7:0.0681733 8:0.263067 9:0.0915114 10:-0.351421 11:-0.537319 12:-0.254303 13:0.0824563 14:-0.265368 15:0.218326 16:-0.0547314 17:0.478396 18:0.810671 19:-0.204959 20:-0.149339 21:0.0500896 22:-0.66258 23:-0.154365 24:0.0301102 25:0.0327157 26:-0.342345 27:0.0847444 28:0.233766 29:-0.151183 30:0.499116 31:0.778762 32:0.114404 33:-0.107794 34:0.401129 35:-0.478172 36:0.1784 37:0.0933146 38:0.442136 39:-0.0636039 40:0.456372 41:0.143222 42:-0.251284 43:0.246243 44:0.526289 45:0.167809 46:-0.191696 47:0.0969891 48:0.274247 49:0.106084 50:-0.199153 51:0.289875 52:0.182542 53:0.423004 54:0.199371 55:0.117 56:0.244866 57:0.24502 58:-0.197821 59:0.0607238 60:0.336259 61:-0.0745887 62:0.04991 63:0.345153 64:0.697538 65:-0.127663 66:0.534559 67:0.284938 68:-0.0157998 69:0.160124 70:0.356761 71:-0.0415279 72:-0.13813 73:0.0516534 74:-0.544795 75:-0.0744801 76:0.32069 77:0.000840974 78:-0.365749 79:0.494295 80:0.178561 81:0.00033206 82:0.49719 83:0.0560877 84:-0.241762 85:-0.545195 86:-0.363285 87:0.00259527 88:0.222479 89:0.138345 90:0.135136 91:0.17821 92:0.443264 93:0.260302 94:-0.108319 95:0.549415 96:0.111345 97:-0.593739 98:-0.658559 99:-0.456625 100:-0.0995893 101:0.454224 102:0.208066 103:-0.140348 104:-0.0998439 105:0.478882 106:0.388948 107:-0.362224 108:0.0152027 109:0.196838 110:-0.813159 111:-0.71627 112:-0.373573 113:-0.604337 114:0.0703862 115:-0.082776 116:0.409013 117:0.11763 118:0.59537 119:0.327835 120:-0.232839 121:-0.0778734 122:0.0981577 123:-0.171719 124:-0.701872 125:-0.488885 126:-0.159848 127:0.132603 128:-0.504964 129:0.210534 130:0.240674 131:0.55442 132:0.427437 133:-0.0219368 134:0.121727 135:0.377094 136:0.00419992 137:-0.703167 138:-0.584829 139:0.0360906 140:0.144839 141:-0.430927 142:-0.202484 143:0.337414 144:0.514066 145:0.371411 146:0.0509422 147:0.0186018 148:0.22466 149:-0.176521 150:-0.651827 151:-0.0891099 152:-0.158605 153:-0.237622 154:-0.133983 155:-0.0720682 156:-0.199856 157:0.213772 158:0.461275 159:-0.229549 160:-8.7722e-005 161:0.609415 162:-0.184432 163:-0.799465 164:0.185493 165:-0.40397 166:0.287913 167:-0.325827 168:-0.0398392 169:0.446015 170:0.159511 171:0.568292 172:-0.0250992 173:0.00450431 174:0.461933 175:-0.526374 176:-0.837386 177:0.0309293 178:-0.552361 179:0.383888 180:-0.165291 181:-0.44772 182:0.0482466 183:0.174034 184:0.212976 185:-0.326285 186:0.139742 187:0.496149 188:0.016418 189:-0.661612 190:0.036992 191:-0.2185 192:0.137 193:-0.704461 194:-0.405746 195:0.432645 196:-0.0139415 197:0.17752 198:-0.571318 199:0.286932 200:0.698318 201:0.0314267 202:-0.699657 203:-0.121423 204:0.0801671 205:0.061727 206:-0.323032 207:-0.817501 208:0.0708621 209:0.03717 210:0.32536 211:-0.311069 212:0.0505622 213:0.652613 214:0.0489466 215:-0.68918 216:0.633768 217:0.516472 218:-0.0588598 219:-0.608207 220:-0.0928152 221:-0.0288311 222:-0.0605665 223:0.390662 224:-0.278372 225:0.0574984 226:0.541031 227:-0.100357 228:-0.752868 229:0.364829 230:0.646345 231:0.0111195 232:-0.381882 233:-0.196979 234:0.177937 235:-0.111916 236:0.617396 237:-0.123253 238:0.212387 239:0.24764 240:-0.570142 241:-0.198103 242:-0.0566674 243:0.395756 244:0.234056 245:-0.251033 246:0.0984166 247:0.191052 248:-0.24075 249:0.679731 250:0.0132789 251:0.133211 252:0.746295 253:-0.350852 254:-0.875063 255:0.162986 256:0.434823 257:0.583541 258:-0.252153 259:-0.162029 260:0.185401 261:-0.252899 262:0.72601 263:-0.0460432 264:-0.153868 265:0.757547 266:-0.31315 267:-0.613729 268:0.174317 269:0.31854 270:-0.256495 271:-0.612111 272:0.0910619 273:0.886108 274:-0.37638 275:0.950916 276:-0.0703386 277:0.220226 278:0.708172 279:-0.689749 280:-0.309322 281:0.309112 282:-0.18581 283:0.337701 284:-0.163719 285:-0.597225 286:0.468444 287:-0.453723 288:0.750141 289:0.00771415 290:0.0573329 291:0.73545 292:-0.511572 293:-0.736271 294:0.412581 295:0.536013 296:0.0484247 297:-0.460135 298:0.0379938 299:0.415282 300:-0.407471 301:0.656415 302:-0.180154 303:0.188267 304:0.775025 305:-0.417075 306:-0.0128131 307:0.586151 308:0.00671183 309:-0.244859 310:-0.399628 311:0.495389 312:0.557313 
0.4737928416643463 0.4643576813848436 1:0.15968 2:0.131009 3:0.0813459 4:0.227617 5:-0.39923 6:0.451682 7:-0.191081 8:-0.511788 9:0.154568 10:-0.164627 11:-0.135847 12:-0.177295 13:-0.31542 14:0.69576 15:0.00787863 16:0.267345 17:-0.317736 18:-0.411569 19:-0.29532 20:-0.0380033 21:-0.798354 22:0.349444 23:-0.0728525 24:-0.425136 25:0.628097 26:-0.00686468 27:0.792762 28:0.0236621 29:0.0731122 30:-0.298499 31:-0.771488 32:0.016125 33:0.0601892 34:-0.597568 35:-0.36635 36:0.0884731 37:-0.334487 38:-0.00499711 39:0.239361 40:1 41:-0.424382 42:-0.12053 43:-0.286047 44:-0.535539 45:-0.0719414 46:-0.398785 47:-0.878182 48:0.076675 49:-0.424391 50:-0.558623 51:0.118628 52:-0.0218321 53:0.676288 54:0.0663775 55:0.0398708 56:-0.187122 57:-0.258661 58:0.041731 59:-0.135677 60:-0.420244 61:-0.106118 62:-0.876694 63:0.0511094 64:0.783463 65:-0.383602 66:0.382842 67:-0.03015 68:0.269063 69:-0.212166 70:-0.47585 71:0.0589053 72:-0.230963 73:-0.478196 74:0.0539098 75:-0.596522 76:0.564567 77:-0.0300135 78:-0.0337765 79:0.375762 80:0.117178 81:0.242425 82:-0.0395897 83:-0.642559 84:0.163504 85:-0.45272 86:-0.309834 87:0.429326 88:-0.0534379 89:-0.58199 90:0.465184 91:-0.0345475 92:0.173571 93:0.107071 94:0.204237 95:0.0538593 96:-0.37501 97:0.227432 98:-0.302984 99:0.0292212 100:0.172038 101:-0.269923 102:-0.242372 103:0.468367 104:0.453645 105:0.114132 106:0.0847156 107:0.423695 108:0.0136746 109:-0.436432 110:0.671395 111:-0.0899692 112:-0.191563 113:-0.603843 114:0.205983 115:-0.387573 116:0.261025 117:0.148975 118:0.0784742 119:-0.0495158 120:0.46249 121:0.244075 122:-0.101795 123:0.456035 124:-0.28164 125:0.495015 126:0.0102626 127:0.00979524 128:0.153278 129:0.700666 130:-0.626304 131:0.118384 132:-0.134497 133:0.216642 134:0.136085 135:0.215229 136:0.598175 137:-0.221057 138:0.400242 139:0.11768 140:0.0811943 141:-0.230509 142:0.464728 143:-0.735057 144:0.0438367 145:-0.37999 146:0.360677 147:0.274244 148:0.304585 149:0.311018 150:-0.13814 151:0.0972012 152:-0.278544 153:0.220062 154:-0.0703697 155:-0.291125 156:-0.689678 157:0.0101876 158:-0.540081 159:0.316004 160:0.166014 161:0.0396146 162:0.459453 163:-0.0275631 164:0.353918 165:-0.333556 166:0.171845 167:-0.322358 168:-0.243516 169:0.0714204 170:0.0879147 171:-0.410299 172:0.175232 173:-0.149045 174:-0.291691 175:0.112861 176:0.00410208 177:0.164499 178:0.231063 179:0.0342473 180:0.0872806 181:-0.0199917 182:-0.285769 183:0.0712801 184:-0.715776 185:0.213672 186:0.0178938 187:-0.184571 188:0.426369 189:-0.259018 190:-0.0509556 191:-0.232266 192:0.246977 193:0.0354483 194:0.0945562 195:-0.167591 196:0.0436817 197:-0.820013 198:-0.246544 199:-0.149534 200:-0.0665126 201:0.0870857 202:-0.210193 203:0.0835389 204:0.128876 205:0.473044 206:-0.522122 207:0.0851421 208:-0.0380984 209:0.00846653 210:-0.629284 211:0.112243 212:-0.191959 213:0.256471 214:0.38793 215:-0.430458 216:0.116984 217:0.125792 218:0.255599 219:-0.406236 220:-0.00950907 221:-0.465258 222:0.0447044 223:-0.733833 224:-0.312479 225:-0.177611 226:0.185023 227:0.527592 228:-0.498594 229:0.0934234 230:-0.539429 231:-0.0238426 232:-0.291275 233:0.0883232 234:-0.495574 235:0.52178 236:-0.0326496 237:-0.0524694 238:-0.150862 239:-0.146747 240:0.264193 241:-0.489394 242:0.679479 243:-0.0542035 244:0.0968906 245:-0.16019 246:0.265365 247:-0.323281 248:0.88106 249:-0.0622469 250:0.168832 251:-0.195721 252:0.106224 253:0.387604 254:-0.0048942 255:-0.178637 256:-0.0516217 257:-0.546208 258:0.0369085 259:-0.0945068 260:0.140975 261:0.932157 262:-0.191117 263:0.239187 264:-0.165043 265:-0.00522913 266:0.200261 267:0.0109817 268:0.0437893 269:0.0675503 270:-0.37457 271:0.130916 272:0.0910805 273:-0.0257511 274:0.608755 275:-0.00184655 276:0.249414 277:-0.205447 278:0.231982 279:0.110728 280:-0.0952752 281:0.217389 282:-0.265506 283:-0.805099 284:-0.499147 285:0.130463 286:-0.243957 287:0.612809 288:0.203647 289:0.2369 290:-0.07258 291:-0.0803688 292:0.0816781 293:-0.0945516 294:-0.14175 295:-0.211229 296:-0.86022 297:-0.671998 298:0.923733 299:0.00162449 300:0.591711 301:0.119541 302:0.0395839 303:0.113285 304:-0.504918 305:0.143247 306:-0.0985518 307:0.105589 308:-0.269865 309:-0.532577 310:-0.613836 311:0.456841 312:-0.212557 
0.4483361167122434 0.4681270219100086 1:-0.160709 2:0.263783 3:0.56586 4:0.0110485 5:-0.266693 6:-0.15906 7:0.0385865 8:-0.189178 9:0.180687 10:-0.501899 11:0.0526975 12:0.512519 13:-0.0654628 14:0.421373 15:0.40974 16:-0.138967 17:0.355672 18:-0.870389 19:-0.0498274 20:-0.366392 21:-0.321401 22:0.233537 23:-0.375377 24:0.0637797 25:0.00446596 26:-0.0724203 27:0.117492 28:0.0569366 29:-0.00813715 30:-0.027614 31:-0.861101 32:0.104971 33:0.00824374 34:0.387873 35:0.15064 36:-0.980507 37:0.118997 38:0.235612 39:0.116808 40:0.376448 41:0.397811 42:-0.138137 43:0.076117 44:-0.569967 45:-0.184458 46:-0.146103 47:-0.0582473 48:0.201248 49:-0.551929 50:-0.150711 51:0.0153517 52:-0.490717 53:0.463881 54:0.412209 55:-0.0967746 56:-0.138335 57:-0.260987 58:-0.395729 59:0.079247 60:-0.287019 61:0.220038 62:-0.363066 63:0.308392 64:0.068207 65:-0.180074 66:0.0638279 67:0.116958 68:0.0689856 69:0.168284 70:-0.635094 71:0.0216348 72:0.059489 73:0.159118 74:-0.00630919 75:0.313209 76:0.272305 77:-0.623613 78:-0.433213 79:0.0640481 80:0.142868 81:0.0219349 82:0.579533 83:-0.638742 84:0.294342 85:-0.207357 86:0.15789 87:0.439638 88:-0.333493 89:-0.126695 90:0.392831 91:-0.614499 92:0.0698443 93:0.30892 94:-0.253267 95:0.436851 96:-0.335373 97:-0.189874 98:-0.109907 99:0.394763 100:0.35956 101:0.457884 102:-0.199728 103:0.0957271 104:-0.597166 105:0.0855935 106:0.375495 107:-0.308063 108:0.0962461 109:0.0181893 110:-0.0678551 111:-0.179483 112:0.448761 113:-0.360825 114:0.260137 115:-0.367955 116:0.448394 117:-0.170191 118:-0.0610817 119:0.372759 120:-0.0351825 121:0.203581 122:-0.424619 123:0.220673 124:0.187707 125:0.579952 126:-0.0256117 127:-0.0593448 128:-0.0270807 129:0.225999 130:-0.842195 131:-0.0118463 132:0.25481 133:0.0935663 134:0.572446 135:0.0143336 136:0.24063 137:-0.162782 138:0.488737 139:0.128088 140:-0.0451974 141:-0.332534 142:0.14553 143:-0.896827 144:0.127376 145:0.061726 146:0.302884 147:0.00261869 148:-0.562395 149:0.680305 150:-0.290928 151:0.56919 152:0.4352 153:0.198206 154:-0.111533 155:-0.0899313 156:-0.595144 157:-0.128737 158:-0.191725 159:0.279009 160:-0.00886933 161:-0.282049 162:0.61052 163:-0.132578 164:0.514971 165:0.16194 166:-0.0196351 167:0.0137864 168:0.379274 169:0.10735 170:0.0520281 171:-0.612035 172:0.300269 173:-0.117166 174:-0.265684 175:0.725546 176:-0.565232 177:0.173544 178:-0.0487378 179:0.62983 180:0.33859 181:-0.0389362 182:-0.689281 183:0.174721 184:-0.697843 185:0.191232 186:-0.288145 187:-0.180789 188:0.67082 189:-0.608692 190:0.0817013 191:-0.0955596 192:0.130131 193:-0.556103 194:-0.0213338 195:-0.247837 196:0.0267309 197:-0.72829 198:0.0769245 199:-0.222403 200:-0.0785962 201:0.661058 202:-0.660485 203:0.252038 204:-0.736651 205:-0.109257 206:-0.132351 207:-0.424876 208:-0.00146823 209:0.151949 210:-0.539359 211:0.215013 212:-0.520735 213:-0.498242 214:0.334275 215:-0.640901 216:0.709823 217:-0.0826872 218:-0.133221 219:-0.294047 220:-0.132215 221:0.113166 222:0.065702 223:-0.779779 224:-0.0426993 225:-0.21597 226:-0.090036 227:0.568779 228:-0.572729 229:0.608426 230:-0.389463 231:-0.12086 232:-0.0812794 233:-0.436519 234:-1 235:0.111424 236:-0.712036 237:0.108918 238:-0.211035 239:-0.199976 240:0.576993 241:-0.843847 242:0.523586 243:-0.154873 244:0.102011 245:-0.19487 246:-0.216498 247:-0.465138 248:0.10396 249:-0.717171 250:-0.0366451 251:-0.343053 252:-0.34481 253:0.845895 254:-0.277578 255:0.734178 256:-0.315576 257:-0.287916 258:-0.408058 259:-0.427494 260:-0.734183 261:0.0112541 262:-0.642607 263:-0.0701318 264:-0.33329 265:-0.414879 266:0.916872 267:-0.455472 268:0.496545 269:0.0398843 270:-0.348868 271:-0.0339328 272:0.185703 273:-0.0838746 274:0.305713 275:0.0421613 276:0.377898 277:-0.0342418 278:-0.415205 279:0.777601 280:-0.0601509 281:0.585483 282:0.261381 283:-0.201831 284:-1 285:0.46522 286:-0.231875 287:0.158289 288:-0.0873236 289:0.288542 290:0.114412 291:-0.512683 292:0.658361 293:0.0757149 294:0.550353 295:-0.0332212 296:-0.297395 297:-0.509859 298:0.717263 299:-0.442583 300:0.377772 301:0.19075 302:0.153025 303:0.117979 304:-0.803762 305:0.925485 306:0.00277304 307:0.139621 308:0.169251 309:-0.268422 310:-0.719247 311:0.410124 312:-0.619464 
0.8811613213703076 0.8404517663529918 1:-0.380959 2:0.130386 3:0.305567 4:0.436351 5:-0.337364 6:-0.281682 7:0.129752 8:-0.35579 9:0.0543372 10:-0.00711274 11:-0.565754 12:-0.259139 13:0.580518 14:-0.166963 15:0.0743666 16:-0.241685 17:0.642255 18:-0.376599 19:0.306488 20:-0.183032 21:-0.400585 22:0.262499 23:0.193156 24:-0.173115 25:0.111415 26:0.344402 27:-0.176695 28:0.00589147 29:-0.315962 30:0.451973 31:-0.628086 32:-0.267913 33:-0.244347 34:-0.574178 35:0.152856 36:0.14082 37:0.0868221 38:-0.192291 39:0.000824619 40:0.278673 41:0.38265 42:-0.213078 43:0.78631 44:-0.656947 45:-0.634235 46:-0.0582632 47:-0.286567 48:-0.414564 49:0.448108 50:-0.286732 51:-0.254096 52:-0.335445 53:-0.0122948 54:0.117337 55:-0.06593 56:0.682121 57:-0.486065 58:-0.276869 59:0.0699502 60:-0.131379 61:-0.402184 62:0.288077 63:0.336604 64:0.0112249 65:-0.14629 66:0.38932 67:0.245844 68:-0.393703 69:0.804818 70:-0.603584 71:-0.402225 72:-0.0930212 73:-0.270042 74:-0.423779 75:0.690442 76:0.275346 77:-0.375126 78:-0.577495 79:-0.134851 80:0.22606 81:0.0648246 82:0.732332 83:-0.802286 84:-0.0426183 85:-0.244147 86:0.217109 87:0.544544 88:0.62951 89:-0.223077 90:0.295327 91:0.0841562 92:0.130995 93:0.160435 94:-0.307035 95:0.901152 96:-0.620993 97:-0.211308 98:0.0324705 99:0.115199 100:0.173203 101:0.39795 102:0.12987 103:0.713502 104:-0.511513 105:0.0610088 106:0.301061 107:-0.105883 108:0.357349 109:-0.351303 110:0.244948 111:-0.478419 112:-0.186487 113:-0.364712 114:0.332124 115:0.0982557 116:0.885836 117:-0.891851 118:-0.0849577 119:0.266968 120:-0.0261484 121:0.363652 122:-0.686461 123:0.0922454 124:-0.541505 125:0.741272 126:0.311757 127:0.25674 128:0.112623 129:0.208907 130:-0.189333 131:0.0984487 132:-0.171085 133:-0.0801959 134:0.325892 135:-0.372201 136:0.714021 137:-0.617748 138:0.0672067 139:0.470376 140:0.147875 141:0.0368376 142:-0.161398 143:-0.0261387 144:0.066122 145:-0.39329 146:0.0592432 147:0.0778424 148:-0.652036 149:0.64597 150:-0.536167 151:0.734802 152:0.173827 153:0.129861 154:0.172499 155:0.272791 156:-0.148477 157:0.122718 158:-0.615223 159:-0.0512197 160:0.21965 161:-0.521512 162:0.516346 163:-0.744118 164:0.131539 165:0.00820301 166:0.241827 167:-0.274503 168:-0.10052 169:-0.322565 170:-0.0669206 171:-0.678911 172:0.139863 173:0.00306333 174:-0.764487 175:0.294936 176:-0.568631 177:0.304458 178:-0.146516 179:0.805392 180:0.595699 181:-0.135575 182:0.230906 183:0.211507 184:-0.80704 185:0.236261 186:0.207427 187:-0.61411 188:0.568174 189:-0.613503 190:0.192998 191:-0.439241 192:-0.103239 193:0.0554516 194:0.288352 195:-0.196447 196:0.138204 197:-0.795241 198:-0.177778 199:0.341831 200:-0.412319 201:0.443587 202:-0.926221 203:-0.0402313 204:-0.117428 205:0.815855 206:0.143392 207:0.0922967 208:-0.460922 209:0.0667591 210:-0.742735 211:-0.0534369 212:0.368458 213:-0.0212319 214:0.748569 215:-0.362688 216:0.143102 217:-0.341713 218:0.0254756 219:-0.210252 220:0.313147 221:-0.544403 222:0.130406 223:-0.660975 224:0.0267847 225:0.286566 226:-0.479699 227:0.923059 228:-0.635625 229:-0.247316 230:0.0755994 231:-0.0187535 232:-0.0879317 233:0.122651 234:-0.331495 235:0.14274 236:-0.0578416 237:0.124131 238:0.187549 239:-0.621172 240:0.319133 241:-0.172223 242:0.463784 243:-0.00739822 244:0.39161 245:-0.216982 246:-0.110092 247:-0.842126 248:0.434701 249:0.325015 250:-0.256261 251:0.430817 252:-0.477596 253:0.318069 254:-0.0880227 255:0.188769 256:-0.189883 257:0.0546971 258:-0.638806 259:0.331627 260:-0.585384 261:0.469027 262:0.27938 263:-0.170491 264:0.40709 265:-0.627976 266:0.0522377 267:-0.218713 268:0.651154 269:0.318973 270:-0.0070306 271:-0.718909 272:-0.204889 273:-0.0151731 274:0.219444 275:0.398499 276:0.0305039 277:0.24295 278:-0.638872 279:0.338344 280:-0.192996 281:0.723007 282:0.110567 283:0.228289 284:-0.353709 285:-0.513898 286:-0.268571 287:0.0772568 288:0.344322 289:0.174931 290:0.373721 291:-0.25767 292:0.385041 293:-0.0963671 294:0.259284 295:0.155572 296:0.0577894 297:-0.98864 298:-0.389437 299:0.175412 300:-0.0188291 301:0.25652 302:0.121336 303:0.462133 304:-0.519628 305:-0.094003 306:-0.127583 307:0.203479 308:-0.0940899 309:0.265155 310:-0.447979 311:-0.273082 312:-0.096247 
0.6922854251157223 0.7536541712379914 1:0.144006 2:0.0793446 3:0.201417 4:0.0228963 5:-0.682876 6:0.0138234 7:0.00877768 8:-0.310099 9:-0.131169 10:0.027324 11:-0.0701787 12:0.421467 13:-0.314577 14:-0.0334966 15:-0.0542402 16:0.286416 17:-0.481028 18:-0.763813 19:0.418989 20:-0.0916348 21:0.138187 22:-0.0290339 23:0.0940137 24:0.0108563 25:0.72024 26:0.0641496 27:0.087469 28:0.193157 29:0.189653 30:0.0226056 31:-1 32:-0.168569 33:-0.184635 34:-0.0984486 35:-0.00438856 36:-0.0136684 37:-0.00311975 38:0.195285 39:-0.217808 40:0.246873 41:0.186508 42:0.161216 43:-0.26671 44:-0.793063 45:0.149659 46:-0.0254169 47:-0.320604 48:0.294715 49:-0.567819 50:-0.669758 51:0.611465 52:-0.212717 53:0.273844 54:0.239228 55:-0.04839 56:-0.0307357 57:-0.26066 58:-0.189191 59:-0.227976 60:0.321221 61:-0.161674 62:-0.351973 63:-0.0428225 64:0.151347 65:-0.0695371 66:0.134771 67:0.121403 68:-0.0672122 69:-0.00773717 70:-0.00857828 71:-0.11054 72:-0.260096 73:0.206905 74:-0.272436 75:0.429072 76:-0.0758192 77:0.496575 78:-0.154455 79:0.0178748 80:-0.0612265 81:0.213663 82:0.112485 83:-0.248762 84:-0.0580596 85:-0.17614 86:0.486914 87:0.163098 88:0.323303 89:-0.27561 90:0.039173 91:0.758603 92:0.0579188 93:-0.218727 94:0.366137 95:0.0840667 96:-0.487886 97:0.127682 98:0.0646581 99:0.499419 100:-0.524688 101:0.189092 102:0.146383 103:-0.466386 104:-0.0499328 105:0.0450003 106:-0.386878 107:-0.0352428 108:-0.157908 109:-0.0777797 110:0.491934 111:-0.0359182 112:0.92909 113:0.183558 114:0.00182687 115:0.177677 116:0.474655 117:0.117239 118:0.199472 119:-0.541371 120:0.129975 121:-0.142711 122:0.0646281 123:0.324921 124:-0.306061 125:0.566828 126:-0.0159602 127:0.406193 128:-0.241735 129:-0.157887 130:-0.260737 131:0.274113 132:-0.591731 133:0.0598544 134:-0.334531 135:0.0106688 136:0.513927 137:-0.434895 138:0.501407 139:-0.539963 140:0.101156 141:-0.168751 142:-0.0153028 143:-0.389581 144:0.264525 145:-0.644587 146:0.1172 147:-0.33754 148:0.0397645 149:0.139732 150:-0.124124 151:0.110614 152:-0.163885 153:-0.164714 154:-0.0428707 155:0.254062 156:-0.533792 157:0.213221 158:-0.764142 159:0.225778 160:-0.315123 161:0.259204 162:0.218032 163:-0.65508 164:-0.160361 165:-0.324045 166:-0.00836617 167:-0.631492 168:-0.70423 169:0.40284 170:0.025956 171:-0.850559 172:0.34383 173:-0.118204 174:0.344829 175:0.234776 176:-0.267044 177:0.154451 178:-0.316807 179:-0.165299 180:0.113439 181:-0.381991 182:-0.0621632 183:0.267041 184:-0.856638 185:0.309252 186:-0.313757 187:0.091722 188:0.430326 189:-0.200286 190:0.0303006 191:-0.385487 192:-0.359748 193:-0.454927 194:0.21536 195:0.209351 196:0.287563 197:-0.497507 198:0.248793 199:0.165297 200:0.305206 201:0.527914 202:-0.249698 203:0.179943 204:-0.240371 205:0.0274078 206:-0.224634 207:-0.153723 208:-0.0432879 209:0.69397 210:-0.190899 211:0.37169 212:-0.0422167 213:-0.171428 214:0.459041 215:0.388875 216:0.563636 217:-0.278136 218:-0.422398 219:-0.617211 220:0.1815 221:-0.516341 222:0.77468 223:-0.0630212 224:0.258974 225:0.159095 226:-0.0802467 227:0.219807 228:-0.0919006 229:-0.180742 230:-0.116007 231:-0.40513 232:-0.535448 233:0.0400748 234:-0.150036 235:0.835257 236:-0.0273927 237:0.255761 238:-0.114717 239:-0.0226869 240:0.283497 241:0.235815 242:0.0776443 243:-0.0570636 244:-0.538774 245:-0.387367 246:-0.15298 247:-0.215538 248:0.720453 249:0.0484443 250:0.247147 251:-0.241519 252:-0.610676 253:0.448131 254:0.395532 255:0.00440593 256:-0.184456 257:-0.904475 258:-0.476749 259:0.457022 260:-0.108789 261:0.85399 262:-0.118661 263:0.448215 264:-0.215287 265:-0.665502 266:0.237827 267:0.716275 268:-0.0631462 269:-0.0782874 270:-0.911301 271:-0.0186334 272:0.443575 273:-0.7845 274:0.841786 275:-0.240153 276:0.378894 277:-0.239202 278:-0.539786 279:0.248881 280:0.609597 281:0.350758 282:-0.0526097 283:-0.790875 284:0.113972 285:-0.0627566 286:-0.63709 287:0.706613 288:-0.04084 289:0.513816 290:0.0875961 291:-0.774372 292:0.197912 293:0.416994 294:-0.0429736 295:-0.166689 296:-1 297:0.241496 298:0.0836809 299:-0.668115 300:0.678632 301:-0.0216358 302:0.351311 303:0.242811 304:-0.851489 305:0.36434 306:0.0888839 307:0.361261 308:-0.121546 309:-0.859543 310:0.122617 311:0.00486309 312:-0.543828 
0.6060735083165889 0.4116638945739629 1:0.0165875 2:0.327512 3:0.0970859 4:0.138744 5:-1 6:-0.433411 7:0.29147 8:-0.339936 9:-0.30483 10:-0.207194 11:0.104997 12:0.143664 13:0.145765 14:0.460073 15:-0.0483338 16:0.121912 17:0.205084 18:-0.703772 19:-0.972688 20:-0.277547 21:-5.85416e-005 22:-0.45256 23:0.0338688 24:-0.225983 25:0.106511 26:-0.299875 27:0.512435 28:0.0339481 29:0.0166902 30:-0.335741 31:-0.944579 32:-0.446808 33:-0.0177702 34:-0.206516 35:-0.194633 36:-0.537188 37:-0.443375 38:0.550328 39:0.177803 40:0.437286 41:-0.210207 42:0.0177176 43:-0.18887 44:-0.605752 45:0.152401 46:0.135401 47:0.242218 48:0.541255 49:-0.153183 50:-0.3691 51:0.338228 52:-0.0805738 53:0.778486 54:-0.0918985 55:0.151289 56:-0.0309946 57:-0.273677 58:-0.360303 59:0.0898223 60:-0.245407 61:0.297533 62:-0.0512813 63:-0.417316 64:0.0166771 65:0.124022 66:0.542125 67:-0.162814 68:0.031754 69:0.0377521 70:-0.88962 71:-0.0788292 72:0.0878953 73:-0.240312 74:0.0717811 75:0.471411 76:-0.671055 77:0.146811 78:-0.25407 79:0.0809488 80:-0.258289 81:0.262492 82:0.690512 83:-1 84:-0.22573 85:0.349629 86:0.0176927 87:0.628124 88:0.422416 89:0.0227176 90:0.0395443 91:0.0491156 92:-0.0514792 93:0.123666 94:-0.058007 95:0.47291 96:-0.348123 97:-0.0520333 98:0.13723 99:0.167225 100:-0.312267 101:0.481157 102:-0.303992 103:-0.257573 104:0.134083 105:0.199125 106:0.14905 107:-0.0612903 108:0.342851 109:-0.0729609 110:0.0324964 111:0.037676 112:0.391927 113:0.208453 114:0.429373 115:-0.42087 116:-0.193825 117:-0.481649 118:-0.0296516 119:0.0377479 120:0.0728562 121:0.451671 122:-0.0112238 123:0.335249 124:0.302478 125:0.124934 126:-0.220199 127:0.371241 128:-0.107789 129:-0.726534 130:-0.750555 131:0.00569752 132:0.031867 133:0.107806 134:0.201352 135:0.0486485 136:0.256163 137:-0.25465 138:0.199943 139:-0.461357 140:-0.153317 141:-0.92451 142:-0.116667 143:0.0251097 144:0.151838 145:-0.203193 146:0.434896 147:0.0596323 148:-0.374715 149:0.357691 150:-0.145044 151:0.211455 152:0.544572 153:0.226907 154:-0.285992 155:-0.365518 156:-0.817626 157:-0.0294357 158:-0.415094 159:0.345551 160:0.0111094 161:0.175164 162:0.393656 163:-0.397701 164:0.567894 165:-0.100357 166:0.47461 167:-0.41857 168:-0.0384224 169:-0.0803975 170:0.041258 171:-0.603846 172:0.0885188 173:-0.682616 174:-0.344443 175:0.60555 176:-0.474981 177:0.609437 178:0.131356 179:0.157756 180:0.313135 181:-0.190005 182:0.164367 183:0.216102 184:-0.622729 185:0.141994 186:-0.383925 187:-0.112853 188:0.40895 189:-0.157139 190:0.514611 191:-0.502613 192:0.229308 193:-0.201737 194:-0.219185 195:-0.235296 196:0.116022 197:-0.769475 198:-0.0212493 199:-0.299259 200:0.323834 201:0.612859 202:-0.438186 203:0.229243 204:-0.627013 205:-0.315157 206:0.415993 207:-0.188059 208:0.0456638 209:0.204916 210:-0.616464 211:0.0526496 212:-0.476289 213:-0.425543 214:0.553761 215:-0.27469 216:0.272181 217:-0.0421335 218:0.00128837 219:-0.348075 220:-0.448639 221:0.0103518 222:0.0491749 223:-0.776378 224:0.0446373 225:-0.320203 226:-0.156164 227:0.215181 228:-0.465684 229:0.0857251 230:-0.396592 231:-0.101897 232:-0.372696 233:0.519742 234:-0.00285565 235:0.182852 236:-0.711608 237:0.138134 238:-0.549367 239:-0.49503 240:0.697364 241:-0.181105 242:0.733202 243:0.127683 244:0.326702 245:-0.360942 246:-0.0179479 247:-0.363745 248:0.100399 249:-0.6886 250:-0.00477208 251:-0.279498 252:-0.375186 253:0.291903 254:-0.838581 255:0.204373 256:-0.167852 257:-0.275664 258:-0.549403 259:-0.137944 260:-0.232423 261:0.313072 262:-0.0946156 263:0.392896 264:-0.146856 265:-0.447032 266:0.607615 267:0.562372 268:0.492101 269:-0.0323448 270:-0.167668 271:-0.358228 272:0.333348 273:-0.802294 274:0.264641 275:0.112712 276:0.529512 277:0.0388811 278:-0.246175 279:0.282662 280:0.110237 281:0.484453 282:-0.122925 283:0.0739949 284:-0.988044 285:0.0818912 286:-0.369956 287:0.0952749 288:0.29869 289:0.532778 290:0.246923 291:-0.542794 292:0.19738 293:-0.129084 294:0.0502164 295:-0.126033 296:-0.366041 297:-0.607676 298:-0.0529373 299:-0.440411 300:0.0883374 301:0.327275 302:0.512146 303:0.19413 304:-0.6905 305:0.266322 306:0.0984795 307:0.076281 308:-0.00439376 309:-0.399731 310:-0.880152 311:0.228066 312:-0.0863102 
0.9988233690142034 0.8843036989362867 1:0.0902141 2:0.207114 3:-0.480888 4:0.0911753 5:0.394154 6:0.349947 7:0.411835 8:-0.326523 9:-0.545014 10:-0.499804 11:0.327693 12:0.267354 13:0.151465 14:0.890871 15:-0.211582 16:-0.073158 17:-0.227724 18:0.495469 19:0.119999 20:-0.265269 21:-0.428788 22:-0.598909 23:-0.289374 24:0.141709 25:0.261728 26:0.0390305 27:0.439688 28:0.126437 29:-0.159122 30:0.042226 31:0.345678 32:-0.0369667 33:0.151873 34:-0.332209 35:-0.385709 36:-0.37034 37:-0.0481049 38:0.0145857 39:-0.267852 40:0.311962 41:0.209461 42:-0.265889 43:-0.00311176 44:0.23891 45:0.332214 46:-0.25033 47:-0.34512 48:-0.281184 49:-0.068044 50:-0.24671 51:0.2405 52:0.154838 53:0.466611 54:-0.0512285 55:-0.695985 56:-0.216556 57:0.154843 58:0.0774341 59:0.220209 60:0.0472461 61:-0.326451 62:-0.297572 63:0.702978 64:0.613835 65:0.753415 66:0.728456 67:-0.0102796 68:-0.425427 69:-0.197761 70:0.355086 71:-0.0676094 72:-0.267888 73:-0.33031 74:-0.117973 75:-0.143464 76:0.0584668 77:-0.0145837 78:0.263362 79:0.180253 80:0.119531 81:-0.249976 82:0.300162 83:-0.0760551 84:0.609257 85:-0.186379 86:-0.144235 87:0.261331 88:-0.222333 89:-0.344092 90:0.00780739 91:0.589689 92:0.231948 93:0.1413 94:-0.456938 95:0.0830934 96:-0.33205 97:0.481063 98:0.191071 99:-0.0999341 100:-0.0884464 101:-0.542156 102:-0.120151 103:0.443373 104:0.480324 105:0.309644 106:0.381167 107:-0.388746 108:-0.19175 109:0.177531 110:0.314767 111:-0.182716 112:-0.201331 113:-0.0432146 114:-0.127788 115:-0.0017023 116:0.403356 117:0.558894 118:-0.14275 119:0.311805 120:-0.114341 121:0.185458 122:0.241504 123:0.824002 124:0.143164 125:-0.0632227 126:0.0990741 127:-0.555804 128:-0.601107 129:0.08017 130:0.0941308 131:-0.192317 132:0.504635 133:-0.158573 134:0.551952 135:-0.122487 136:0.879547 137:-0.309438 138:-0.13366 139:-0.121015 140:-0.380095 141:0.3209 142:-0.118341 143:0.296806 144:-0.0978498 145:0.359132 146:-0.116311 147:0.254196 148:0.0387142 149:0.69762 150:-0.281542 151:-0.208338 152:0.0909099 153:0.00927108 154:-0.347657 155:0.268341 156:0.848626 157:-0.381524 158:0.142964 159:0.0868055 160:0.360757 161:-0.0491119 162:1 163:-0.0992824 164:0.326789 165:-0.0509992 166:0.251837 167:-0.565489 168:-0.255577 169:-0.248419 170:-0.506392 171:0.225813 172:0.623652 173:0.405942 174:-0.0894196 175:0.668856 176:-0.202654 177:0.135332 178:-0.868845 179:-0.161686 180:-0.317371 181:-0.000785705 182:0.628591 183:-0.145491 184:-0.0168494 185:0.438241 186:0.381701 187:-0.462145 188:0.388894 189:-0.180232 190:0.0922065 191:-0.148622 192:-0.23715 193:0.201934 194:0.444934 195:0.5188 196:-0.106841 197:-0.432835 198:-0.0455183 199:0.618856 200:0.269516 201:0.688342 202:-0.725665 203:0.226665 204:-0.173245 205:0.371341 206:0.154697 207:-0.0323256 208:0.102469 209:0.0539166 210:-0.436795 211:-0.114287 212:0.190488 213:-0.566117 214:0.319369 215:-0.763488 216:0.472441 217:-0.195587 218:-0.0498979 219:-0.0434489 220:0.396325 221:-0.0486666 222:0.0787931 223:-0.592074 224:-0.112172 225:0.379416 226:0.0560321 227:0.462189 228:-0.633843 229:-0.211699 230:-0.802596 231:0.0944706 232:0.136962 233:0.546311 234:0.0616339 235:-0.0294511 236:-0.644497 237:-0.273092 238:0.1039 239:-0.33596 240:0.387984 241:-0.686019 242:-0.0918628 243:-0.260753 244:0.349875 245:-0.156622 246:0.607271 247:-0.368257 248:-0.0240548 249:-0.592659 250:-0.291936 251:0.0384123 252:-0.454008 253:0.951842 254:-0.389274 255:0.74031 256:-0.180763 257:0.130671 258:0.137705 259:0.649573 260:-0.255213 261:0.222305 262:-0.624563 263:-0.244307 264:-0.187921 265:-0.599362 266:0.740419 267:-0.786025 268:0.215075 269:-0.0772703 270:0.220202 271:0.29498 272:0.406869 273:0.131967 274:-0.0057622 275:-0.656361 276:-0.129127 277:0.204862 278:-0.884662 279:0.748664 280:-0.398627 281:0.220375 282:0.320569 283:0.27588 284:0.33744 285:0.1096 286:0.293132 287:-0.0611877 288:0.0110899 289:0.159658 290:0.497075 291:-0.724005 292:0.425153 293:-0.612035 294:-0.0316477 295:-0.0491036 296:0.521334 297:-0.189549 298:-1 299:0.418486 300:0.211877 301:0.252736 302:-0.354605 303:0.491642 304:-0.570954 305:0.346182 306:-0.324492 307:0.550349 308:0.399714 309:-0.256191 310:-0.0477605 311:-0.526666 312:0.391601 
0.1442886989239994 0.06003335019732529 1:0.146908 2:-0.284548 3:0.261249 4:0.328971 5:-0.010272 6:-0.344085 7:-0.389396 8:0.196943 9:-0.158715 10:-0.82047 11:-0.154175 12:0.697483 13:0.173971 14:0.811506 15:-0.423017 16:0.142976 17:0.0276963 18:-0.131267 19:-0.336992 20:-0.219401 21:0.189645 22:-0.4382 23:-0.00250858 24:0.111813 25:0.237943 26:-0.578711 27:0.664655 28:-0.201204 29:-0.140655 30:-0.0753135 31:-0.0187144 32:-0.138617 33:-0.100147 34:0.0895703 35:-0.487028 36:-0.157461 37:0.0130925 38:0.215957 39:-0.424663 40:0.561545 41:-0.231754 42:-0.0626156 43:-0.217144 44:0.164725 45:-0.0744287 46:-0.317353 47:0.388895 48:-0.635066 49:-0.0432125 50:-0.191309 51:0.200884 52:-0.724784 53:0.491823 54:-0.228188 55:-0.00196165 56:-0.141799 57:0.272742 58:-0.337047 59:-0.0783863 60:0.476709 61:-0.777341 62:-0.14139 63:0.0459995 64:0.414243 65:-0.753203 66:0.484762 67:-0.280427 68:0.0274469 69:-0.115727 70:0.228129 71:-0.239707 72:-0.23649 73:0.311684 74:-0.52229 75:-0.164341 76:0.0448364 77:-0.0105737 78:-0.810628 79:0.370841 80:-0.239946 81:0.0874587 82:-0.105266 83:0.0743269 84:-0.2839 85:-0.436844 86:0.705591 87:-0.451956 88:-0.0249647 89:-0.214996 90:-0.00968233 91:-0.229255 92:0.308442 93:-0.0831425 94:0.0872605 95:-0.243536 96:0.152003 97:-0.315184 98:-0.27205 99:0.680399 100:-0.599776 101:-0.103768 102:-0.160716 103:0.0983611 104:-0.360511 105:0.303412 106:0.0581692 107:0.128553 108:-0.370769 109:0.193715 110:-0.387674 111:-0.249301 112:0.658835 113:-0.61743 114:0.0141946 115:0.0294629 116:0.418858 117:-0.394736 118:0.195058 119:0.0632187 120:0.192622 121:-0.435342 122:0.187514 123:-0.212548 124:-0.257702 125:0.570973 126:-0.385282 127:0.109695 128:0.168489 129:0.285431 130:-0.207879 131:0.0728042 132:0.0730539 133:0.502088 134:-0.287702 135:0.148737 136:-0.108511 137:-0.435501 138:0.484708 139:-0.385984 140:0.0714853 141:-0.0443949 142:0.166705 143:-0.304516 144:-0.0851537 145:0.107627 146:0.579082 147:-0.12476 148:0.0572189 149:-0.436966 150:-0.331116 151:0.157215 152:-0.476996 153:-0.234302 154:-0.191803 155:0.365824 156:-0.992842 157:-0.328339 158:0.0853783 159:0.694947 160:-0.0615214 161:0.0127091 162:-0.527696 163:-0.334599 164:0.165523 165:-0.773857 166:-0.362711 167:-0.226672 168:0.043948 169:-0.109344 170:-0.452773 171:0.169324 172:0.995046 173:-0.255859 174:-0.0726537 175:-0.531187 176:-0.0312141 177:-0.156194 178:-0.975097 179:-0.111642 180:0.251924 181:0.382858 182:-0.420394 183:-0.241329 184:0.0578647 185:0.896692 186:-0.0766416 187:0.0597704 188:-0.20578 189:-0.299754 190:-0.212047 191:-0.537771 192:-0.212739 193:0.248655 194:0.29869 195:-0.0318775 196:-0.180134 197:0.0745062 198:0.696332 199:-0.116484 200:0.0842198 201:0.119976 202:-0.295638 203:-0.198564 204:-0.13581 205:-0.261653 206:-0.144516 207:0.25841 208:-0.329702 209:-0.179906 210:0.141658 211:0.727928 212:-0.13082 213:-0.0205235 214:0.0566088 215:0.03996 216:0.485787 217:-0.173723 218:-0.609665 219:-0.197065 220:0.0420657 221:-0.322466 222:-0.273498 223:0.105599 224:0.486025 225:-0.0014953 226:0.466261 227:0.153509 228:0.144168 229:-0.163099 230:-0.112446 231:-0.168422 232:-0.659369 233:-0.214776 234:-0.108823 235:-0.329404 236:0.0510741 237:0.649028 238:-0.180387 239:0.309754 240:-0.0591719 241:0.131536 242:-0.338465 243:-0.0600346 244:-0.294981 245:-0.589436 246:0.134325 247:0.107426 248:-0.364227 249:-0.341963 250:0.639726 251:-0.641939 252:0.75572 253:-0.0500706 254:0.374216 255:-0.516241 256:-0.219167 257:-0.738507 258:0.0357854 259:-0.139829 260:0.222672 261:-0.250624 262:-0.918027 263:0.487704 264:-0.593916 265:0.182016 266:0.0255824 267:0.217737 268:-0.155394 269:0.10268 270:-0.27488 271:0.626897 272:-0.0302773 273:-0.0876207 274:-0.242396 275:-0.761277 276:0.833389 277:-0.527398 278:-0.0164838 279:-0.198312 280:0.212783 281:-0.0111445 282:-0.271824 283:-0.113929 284:0.29471 285:-0.26134 286:-0.191129 287:-0.189189 288:-0.751597 289:0.800562 290:-0.599902 291:0.294979 292:-0.176296 293:0.366686 294:-0.334035 295:0.0556292 296:0.12048 297:0.258033 298:0.749755 299:-0.288811 300:-0.276366 301:-0.702972 302:0.66463 303:-0.00809633 304:0.254149 305:-0.205247 306:0.101098 307:-0.117726 308:0.306171 309:0.263886 310:-0.196242 311:0.277777 312:-0.419302 
0.6669523692908529 0.3914974415436053 1:-0.176966 2:-0.290828 3:0.522618 4:0.169236 5:0.140922 6:-0.25852 7:-0.692882 8:0.744796 9:-0.692261 10:-0.822966 11:-0.0668972 12:0.229314 13:0.116761 14:0.307478 15:-0.273885 16:0.28612 17:0.25852 18:0.0407891 19:-0.329623 20:-0.382579 21:0.188504 22:-0.41529 23:-0.137118 24:-0.293874 25:0.738768 26:0.0869406 27:0.378431 28:-0.268563 29:0.0495674 30:0.19519 31:0.0895195 32:-0.469625 33:-0.510645 34:0.470049 35:-0.36684 36:-0.58254 37:-0.186967 38:0.240868 39:-0.232692 40:0.566438 41:-0.202533 42:-0.0486464 43:0.0474484 44:-0.0341928 45:-0.301504 46:-0.19613 47:0.601455 48:-0.500413 49:-0.108403 50:-0.185272 51:0.317674 52:-0.0964268 53:0.346297 54:-0.161817 55:0.219974 56:-0.0346428 57:0.204404 58:-0.411261 59:-0.334107 60:0.296985 61:-0.504458 62:0.0734914 63:0.0427608 64:0.20819 65:-0.050872 66:0.264953 67:-0.345817 68:0.140474 69:0.00824742 70:0.335141 71:-0.441436 72:-0.756163 73:-0.020852 74:-0.593599 75:-0.414226 76:0.0241372 77:0.0799643 78:-0.20213 79:0.189589 80:-0.270418 81:0.123129 82:0.112128 83:0.308043 84:-0.556021 85:-0.855165 86:0.586008 87:-0.0696607 88:-0.323538 89:-0.314986 90:0.547823 91:-0.0764071 92:0.308628 93:-0.2099 94:0.0619328 95:-0.118558 96:0.210827 97:-0.437562 98:-0.245449 99:1 100:0.0447459 101:-0.137476 102:-0.0979336 103:-0.00737436 104:0.212739 105:0.315954 106:0.0324872 107:0.0727174 108:-0.30861 109:0.526428 110:-0.368097 111:-0.169121 112:0.711377 113:-0.408674 114:-0.101321 115:-0.400996 116:0.011607 117:0.109549 118:0.0831851 119:0.0667946 120:0.225145 121:-0.0350763 122:0.482535 123:-0.337265 124:-0.659771 125:0.223202 126:-0.378494 127:-0.501588 128:-0.248072 129:0.46649 130:-0.241996 131:-0.00654369 132:0.064265 133:0.437031 134:-0.0776039 135:0.71057 136:-0.185686 137:-0.969121 138:0.268535 139:-0.120565 140:-0.332775 141:-0.983737 142:0.376483 143:0.485305 144:-0.0317278 145:0.134659 146:0.48243 147:-0.218759 148:0.352727 149:-0.36433 150:-0.0450574 151:0.78596 152:0.326366 153:-0.506888 154:-0.321498 155:0.0333904 156:-0.290834 157:-0.360291 158:0.136158 159:0.660303 160:-0.277844 161:0.367055 162:-0.00284693 163:-0.332508 164:0.103814 165:-0.113238 166:-0.168552 167:-0.960053 168:-0.407911 169:-0.243132 170:-0.37868 171:0.211832 172:0.915271 173:-0.115459 174:0.208109 175:-0.469594 176:-0.446476 177:0.193238 178:0.106199 179:-0.536605 180:-0.657313 181:0.205191 182:0.290389 183:-0.127774 184:0.120046 185:0.640361 186:-0.192108 187:0.13383 188:-0.177497 189:-0.345366 190:0.556432 191:0.425117 192:-0.520802 193:-0.652041 194:0.116283 195:0.390083 196:-0.290208 197:0.0327217 198:0.538145 199:-0.0871736 200:0.329865 201:-0.183993 202:-0.554116 203:0.114609 204:-0.030541 205:-0.203947 206:-0.59362 207:-0.0493781 208:-0.50406 209:-0.196968 210:0.101278 211:0.855986 212:-0.309406 213:0.404738 214:0.0297984 215:-0.505825 216:0.399087 217:-0.205834 218:-0.741273 219:-0.610269 220:0.194834 221:0.461776 222:-0.346539 223:0.221089 224:0.740526 225:-0.0719294 226:0.215239 227:-0.191669 228:0.0216082 229:0.412865 230:-0.0485472 231:-0.167751 232:-0.69762 233:0.21559 234:-0.245394 235:-0.303507 236:-0.209118 237:1 238:-0.674988 239:0.131992 240:-0.0561733 241:-0.330291 242:0.195683 243:-0.569101 244:-0.182935 245:-0.0409016 246:-0.231022 247:-0.522871 248:-0.198214 249:-0.664399 250:0.746982 251:-0.423313 252:0.519039 253:-0.0379124 254:0.309266 255:0.129465 256:-0.216248 257:0.00927847 258:-0.204205 259:0.0105926 260:-0.649312 261:-0.299934 262:-0.851452 263:0.728214 264:-0.748014 265:0.259403 266:-0.143277 267:-0.0150892 268:0.458558 269:0.239118 270:0.106336 271:-0.238324 272:-0.110241 273:0.481707 274:-0.39764 275:-0.803211 276:0.757575 277:-0.786984 278:0.224382 279:-0.486817 280:-0.0034596 281:0.440939 282:0.213811 283:0.407362 284:0.0104119 285:-0.311059 286:-0.253273 287:-0.22829 288:-0.728938 289:0.86715 290:-0.733451 291:0.177428 292:-0.184202 293:-0.0750157 294:-0.217144 295:0.148789 296:0.123839 297:-0.386766 298:-0.00631701 299:0.137399 300:-0.0669089 301:-0.877648 302:1 303:-0.681573 304:0.296712 305:-0.234994 306:0.309065 307:-0.359017 308:0.414008 309:0.155789 310:-0.413567 311:0.59207 312:-0.0678193 
0.6019666591279341 0.4068721183995602 1:0.348905 2:-0.520423 3:0.384072 4:0.211786 5:-0.10533 6:0.00446412 7:-0.101993 8:0.0164706 9:-0.180223 10:-0.227299 11:0.0645922 12:-0.0313678 13:-0.458433 14:0.585402 15:-0.577204 16:0.417883 17:0.320815 18:-0.235123 19:-0.695483 20:-0.47611 21:0.0863635 22:-0.332143 23:0.176638 24:-0.000732127 25:0.12502 26:-0.416771 27:0.891886 28:-0.413951 29:0.267078 30:-0.0160986 31:-0.664852 32:-0.140454 33:-0.11788 34:0.0902394 35:-0.767837 36:-0.267673 37:0.310145 38:-0.0345456 39:-0.47881 40:0.481711 41:-0.468918 42:0.0302568 43:0.120529 44:-0.466685 45:-0.438053 46:-0.580038 47:0.268618 48:-0.714762 49:-0.473837 50:-0.0251921 51:-0.255278 52:-0.45212 53:0.720822 54:-0.27722 55:0.0271481 56:0.180884 57:-0.341698 58:-0.311431 59:-0.0389047 60:0.355717 61:-0.874602 62:-0.41377 63:0.548488 64:-0.0799448 65:-0.503068 66:0.599612 67:-0.239849 68:-0.0688995 69:0.185057 70:-0.232949 71:-0.32918 72:-0.356702 73:0.0854401 74:-0.674267 75:-0.247176 76:0.312039 77:-0.156031 78:-0.0974746 79:0.397609 80:-0.479742 81:0.0852665 82:0.452129 83:-0.155763 84:-0.440578 85:-0.27645 86:0.302088 87:-0.497785 88:-0.353277 89:0.24698 90:-0.0934663 91:0.00456162 92:0.606147 93:-0.145824 94:0.0334184 95:0.0700747 96:-0.348749 97:-0.490231 98:-0.0339109 99:0.138308 100:-0.655092 101:-0.236011 102:0.303393 103:-0.274496 104:-0.348456 105:0.34541 106:-0.170591 107:0.099518 108:-0.0218221 109:0.03506 110:-0.929343 111:-0.101447 112:0.0861313 113:-1 114:-0.337485 115:0.164035 116:0.383318 117:-0.284717 118:0.50742 119:0.0351351 120:0.19993 121:-0.195844 122:0.0471893 123:-0.419853 124:0.00141546 125:0.510202 126:-1 127:-0.265842 128:0.216147 129:-0.201822 130:-0.57254 131:0.355108 132:0.0153045 133:0.2989 134:-0.0796028 135:-0.102649 136:-0.3066 137:-0.208405 138:-0.122788 139:-0.738627 140:-0.162381 141:0.423244 142:-0.358682 143:-0.288739 144:0.266983 145:0.0947596 146:0.456313 147:-0.140619 148:0.148721 149:-0.651561 150:0.0712186 151:0.617902 152:-1 153:-0.642634 154:-0.123301 155:0.196391 156:-0.879686 157:0.0841834 158:0.202008 159:0.485709 160:-0.199243 161:0.00496637 162:-0.540939 163:-0.10544 164:0.0745066 165:-0.622263 166:-0.338538 167:0.232581 168:-0.219371 169:0.222445 170:-0.100268 171:0.275167 172:0.893276 173:-0.35761 174:0.152931 175:-0.457685 176:-0.11032 177:0.0714544 178:-0.867972 179:-0.737341 180:0.190311 181:0.332456 182:-0.161283 183:0.0460416 184:0.0446152 185:0.593579 186:-0.28113 187:0.0734738 188:-0.455471 189:0.00822833 190:0.0226729 191:-0.389626 192:-0.0371245 193:0.0191248 194:0.160964 195:0.04878 196:-0.102045 197:0.194549 198:0.646252 199:-0.0040629 200:-0.0139596 201:-0.0489275 202:-0.369908 203:-0.200465 204:-0.564949 205:-0.631958 206:0.239365 207:-0.0157643 208:0.0854027 209:-0.0284995 210:0.197793 211:0.668028 212:-0.360146 213:0.0742966 214:-0.0132152 215:-0.37772 216:0.238621 217:-0.0577433 218:-0.789972 219:-0.288584 220:0.53536 221:-0.0857007 222:-0.11452 223:0.00527823 224:0.825339 225:-0.00852053 226:0.34919 227:-0.645616 228:-0.364898 229:-0.276675 230:-0.17395 231:-0.214239 232:-0.269955 233:0.0285119 234:0.166026 235:-0.240007 236:-0.686587 237:0.339174 238:-0.508286 239:0.310432 240:-0.294029 241:0.469003 242:-0.443598 243:-0.161723 244:-0.433721 245:-0.391997 246:-0.00363172 247:-0.0487706 248:-0.0888598 249:-0.740491 250:0.59095 251:-0.395617 252:0.172295 253:-0.0234158 254:0.332031 255:-0.228369 256:-0.0781536 257:-0.318193 258:0.16905 259:0.0120806 260:0.250551 261:-0.13478 262:-0.774463 263:0.548016 264:-0.656266 265:0.360814 266:-0.307464 267:0.252605 268:-0.231313 269:0.106004 270:-0.112845 271:0.0838324 272:0.000497444 273:-0.0202985 274:-0.200375 275:-0.656015 276:0.79189 277:-0.738908 278:0.381913 279:-0.225276 280:0.0306032 281:0.196939 282:-0.0188842 283:-0.348143 284:-0.00964585 285:0.0490827 286:0.0861764 287:-0.190685 288:-0.792749 289:0.801156 290:-0.472157 291:0.0127166 292:-0.0633637 293:0.387382 294:-0.0920358 295:0.332316 296:0.0766354 297:0.0600592 298:0.0211933 299:-0.133762 300:0.220864 301:-0.150057 302:0.482715 303:-0.632219 304:0.547181 305:-0.00445142 306:-0.00551438 307:0.051673 308:0.228842 309:0.264386 310:-0.278625 311:0.637483 312:-0.462609 
0.4881617250124569 0.3942719738499316 1:-0.0184757 2:-0.361528 3:0.433706 4:0.383344 5:-0.160882 6:-0.0841225 7:-0.311154 8:0.0439618 9:-0.732513 10:-0.381851 11:0.472839 12:-0.209678 13:-0.368613 14:0.640543 15:-0.325544 16:0.269108 17:0.354988 18:-0.497976 19:-0.377285 20:-0.357572 21:0.118078 22:-0.415492 23:-0.266003 24:0.412112 25:-0.468616 26:-0.00268798 27:0.524505 28:-0.358886 29:0.200111 30:0.261095 31:-0.267292 32:-0.601417 33:-0.343232 34:0.0466599 35:-0.379353 36:-0.686814 37:0.529932 38:-0.497649 39:-0.103804 40:0.439251 41:-0.399736 42:0.226658 43:0.286515 44:-0.267674 45:-0.44809 46:-0.621316 47:0.0367127 48:-0.51959 49:-0.392789 50:0.216732 51:-0.109265 52:0.0208028 53:0.516339 54:-0.230888 55:0.242548 56:-0.0711408 57:-0.00377851 58:-0.508373 59:-0.185428 60:0.196525 61:-0.331149 62:-0.632209 63:0.452345 64:-0.0112093 65:-0.277131 66:0.619584 67:-0.329688 68:0.233156 69:-0.182249 70:0.0608616 71:-0.277694 72:-0.0739112 73:0.31922 74:-0.526233 75:-0.369319 76:0.317151 77:-0.665108 78:-0.129197 79:0.581417 80:-0.419305 81:0.200405 82:-0.0973309 83:-0.237969 84:-0.410347 85:0.113902 86:0.417256 87:0.0795987 88:-0.294708 89:0.45688 90:-0.0212644 91:-0.362727 92:0.485988 93:-0.286604 94:0.200415 95:-0.250419 96:-0.252717 97:-0.589302 98:0.0869752 99:0.689977 100:-0.186019 101:-0.273397 102:0.684954 103:-0.413319 104:-0.171643 105:0.434913 106:-0.109399 107:0.254821 108:-0.353616 109:-0.174718 110:-0.907103 111:-0.144404 112:0.599324 113:-0.405503 114:-0.548947 115:0.495614 116:-0.043634 117:-0.308725 118:0.40259 119:-0.0214504 120:0.269904 121:-0.301089 122:0.123595 123:-0.361821 124:-0.387131 125:0.214818 126:-0.404772 127:-0.386502 128:0.180019 129:0.0370411 130:-0.505016 131:0.433993 132:-0.0289512 133:0.384013 134:-0.271197 135:0.244742 136:0.038201 137:-0.251373 138:0.0880409 139:-0.2219 140:-0.509226 141:-0.0634417 142:-0.0436708 143:-0.335202 144:0.432679 145:-0.0321913 146:0.52408 147:-0.492738 148:-0.0110207 149:-0.224529 150:-0.0402455 151:0.292491 152:-0.165963 153:-0.381181 154:0.0358595 155:0.0786512 156:-0.64935 157:0.178004 158:0.0474428 159:0.500033 160:-0.415051 161:0.0217969 162:-0.29291 163:0.0199893 164:0.756112 165:-0.0161985 166:-0.393717 167:0.191027 168:-0.0436646 169:-0.484842 170:0.0300648 171:0.140707 172:0.670839 173:-0.444667 174:-0.0345707 175:-0.495535 176:-0.143762 177:0.49463 178:0.0511093 179:-0.895199 180:0.153818 181:0.27607 182:-0.134631 183:0.0475576 184:0.0227992 185:0.602103 186:-0.283014 187:-0.0290598 188:-0.449791 189:-0.33682 190:0.358279 191:-0.14832 192:-1 193:-0.376174 194:0.257901 195:0.110842 196:-0.036182 197:0.0507101 198:0.405104 199:-0.142108 200:0.500957 201:-0.247403 202:-0.430733 203:-0.243308 204:-0.348686 205:-0.933263 206:-0.292883 207:-0.0140591 208:0.421207 209:-0.00115956 210:0.170873 211:0.524835 212:-0.201307 213:0.277271 214:-0.201487 215:-0.0209272 216:-0.241445 217:-0.143365 218:-0.788667 219:-0.156523 220:0.0787881 221:0.286552 222:-0.0271059 223:0.271372 224:0.528742 225:-0.149803 226:0.0673351 227:-0.180514 228:-0.13782 229:0.0431713 230:-0.152819 231:-0.477595 232:0.00144485 233:-0.0145544 234:0.318123 235:0.00822191 236:0.15656 237:0.487505 238:-0.453144 239:0.208804 240:-0.428049 241:0.305901 242:0.216816 243:0.314747 244:-0.0873264 245:-0.176774 246:0.0134607 247:-0.0464188 248:-0.158702 249:-0.260486 250:0.833492 251:-0.456954 252:0.471272 253:-0.219841 254:0.359163 255:0.189968 256:0.273973 257:-0.124216 258:-0.17734 259:0.0303883 260:0.231465 261:-0.267248 262:-0.640308 263:0.862952 264:-0.688195 265:0.505544 266:-0.375941 267:0.104429 268:0.245642 269:0.224297 270:0.137679 271:0.316252 272:-0.0679417 273:-0.336544 274:-0.24455 275:-0.795516 276:0.722179 277:-0.599932 278:0.501566 279:-0.438906 280:0.38896 281:-0.0522353 282:-0.00603791 283:-0.0118643 284:0.272645 285:0.0782469 286:-0.361708 287:-0.139401 288:-0.761701 289:0.553888 290:-0.704647 291:0.178641 292:-0.146267 293:0.416162 294:0.0697013 295:0.31264 296:-0.212974 297:-0.165742 298:-0.00922276 299:-0.425385 300:-0.110507 301:-0.873154 302:0.490234 303:-0.280702 304:0.152172 305:-0.409444 306:0.0241312 307:0.105208 308:0.382127 309:0.0847799 310:0.142331 311:0.688487 312:-0.135343 
0.8013831529614067 0.3665285092448555 1:-0.166604 2:-0.292732 3:0.335415 4:-0.766647 5:-0.0255772 6:0.652784 7:-0.323115 8:-0.0219206 9:0.065499 10:0.0325667 11:-0.373473 12:0.370161 13:-0.268322 14:0.0541207 15:-0.312705 16:0.192783 17:-0.84081 18:-0.132701 19:0.118929 20:-0.856347 21:-0.258902 22:0.156693 23:0.205849 24:-0.226541 25:-0.383065 26:-0.0673959 27:0.543945 28:-0.232439 29:0.017711 30:-0.527354 31:-0.0726459 32:0.302333 33:-0.0784928 34:-0.252904 35:-0.274408 36:-0.362819 37:-0.174555 38:0.0443832 39:0.18195 40:0.422234 41:-0.399953 42:0.0954214 43:-0.520085 44:0.232998 45:0.388857 46:-0.544136 47:-0.310647 48:-0.616337 49:-0.27523 50:-0.010584 51:0.220117 52:0.154465 53:0.321609 54:-0.144517 55:-0.00986162 56:-0.785634 57:0.069066 58:0.216164 59:-0.548397 60:0.0671483 61:-0.40868 62:-0.450222 63:-0.072207 64:0.00177855 65:-0.368203 66:0.564384 67:-0.203778 68:-0.0792277 69:-0.510917 70:0.114551 71:0.277769 72:-0.120863 73:-0.0783388 74:-0.228321 75:-0.108072 76:0.0224435 77:-0.313704 78:-0.357827 79:0.229247 80:-0.268565 81:0.0913489 82:-0.514372 83:0.233265 84:0.110135 85:-0.233212 86:-0.0359513 87:-0.1535 88:-0.0351581 89:-0.416221 90:0.195013 91:0.158876 92:0.373766 93:-0.0598574 94:-0.000869587 95:-0.845 96:0.334686 97:0.0350739 98:-0.173614 99:0.120837 100:-0.225181 101:0.179876 102:-0.256787 103:-0.288261 104:-0.333908 105:0.264133 106:-0.138847 107:0.189503 108:-0.721574 109:0.177195 110:-0.0429879 111:-0.216867 112:0.454948 113:0.0938187 114:0.283666 115:-0.34259 116:0.288368 117:-0.384001 118:0.278701 119:0.153845 120:0.0717571 121:-0.926073 122:0.438373 123:-0.10274 124:-0.605641 125:0.181156 126:-0.153264 127:0.74229 128:-0.29734 129:-0.101109 130:-0.207377 131:0.239973 132:0.0404237 133:0.306785 134:-0.674377 135:0.491255 136:-0.0151186 137:-0.275913 138:0.307518 139:-0.280875 140:0.405971 141:-0.0755634 142:-0.229003 143:-0.362169 144:0.163287 145:-0.0211674 146:0.479037 147:-0.751257 148:0.0503969 149:-0.350275 150:-0.543884 151:0.37335 152:-0.0597047 153:0.453051 154:-0.560154 155:0.261142 156:-0.265115 157:-0.0510658 158:0.0755625 159:0.409053 160:-0.479821 161:0.201362 162:-0.0750532 163:-0.127936 164:0.183299 165:-0.233053 166:0.211673 167:-0.0618652 168:0.162465 169:-0.465999 170:-0.104227 171:0.132227 172:0.774584 173:-0.652318 174:0.44417 175:-0.423109 176:-0.425966 177:0.176861 178:-0.595753 179:0.18413 180:-0.381729 181:0.378038 182:-0.10007 183:-0.212466 184:-0.0249325 185:0.82171 186:-0.358141 187:0.127461 188:-0.415636 189:-0.166253 190:-0.198453 191:-0.190015 192:0.106931 193:-1 194:0.550137 195:0.285184 196:-0.0600917 197:0.0209522 198:0.49378 199:-0.291223 200:0.842521 201:-0.102769 202:-0.294146 203:0.160027 204:-0.6489 205:-0.049625 206:-0.289462 207:-0.381754 208:-0.274502 209:-0.274862 210:-0.0395898 211:0.770891 212:0.0537362 213:0.329753 214:-0.555846 215:-0.520357 216:0.000287 217:-0.3821 218:-0.104374 219:-0.497389 220:0.501246 221:0.3436 222:-0.208067 223:0.130637 224:0.467973 225:-0.188287 226:0.380646 227:0.0429721 228:-0.029317 229:-0.476977 230:-0.342997 231:-0.0288726 232:-0.557851 233:0.535462 234:-0.284942 235:-0.203495 236:0.174388 237:0.549891 238:-0.219989 239:0.19998 240:-0.169864 241:-0.183984 242:-0.483716 243:-0.440432 244:0.0265016 245:-0.29318 246:0.841623 247:0.332089 248:-0.193391 249:-0.0259417 250:0.62907 251:-0.477502 252:0.3549 253:-0.0485922 254:0.15511 255:-0.455997 256:-0.0941926 257:-0.431501 258:0.126705 259:0.192105 260:0.242981 261:-0.168457 262:-0.152064 263:0.86988 264:-0.549149 265:0.603294 266:-0.22189 267:0.284368 268:-0.163898 269:-0.0192238 270:-0.288428 271:0.184077 272:-0.176565 273:-0.0601815 274:-0.358406 275:-0.71203 276:0.733511 277:-0.607697 278:0.279142 279:-0.117174 280:0.57011 281:-0.0533293 282:0.161561 283:0.180275 284:0.413028 285:-0.620335 286:-0.566752 287:-0.307029 288:-0.735557 289:0.854338 290:-0.541454 291:0.13312 292:-0.410582 293:0.392056 294:-0.418554 295:0.235531 296:-0.000414757 297:0.158179 298:0.13005 299:-0.0647094 300:-0.19603 301:-0.673498 302:0.569969 303:-0.231991 304:0.267483 305:-0.087432 306:0.385434 307:-0.0699418 308:0.425921 309:-0.435672 310:0.234989 311:0.208689 312:-0.244699 
